#############################################################################
## Copyright (c) 1996, Carnegie Mellon University, Cambridge University,
## Ronald Rosenfeld and Philip Clarkson
## Version 3, Copyright (c) 2006, Carnegie Mellon University 
## Contributors includes Wen Xu, Ananlada Chotimongkol, 
## David Huggins-Daines, Arthur Chan and Alan Black 
#############################################################################
=============================================================================
===============  This file was produced by the CMU-Cambridge  ===============
===============     Statistical Language Modeling Toolkit     ===============
=============================================================================
This is a 3-gram language model, based on a vocabulary of 1552 words,
  which begins "</s>", "<s>", "ACHACHI"...
This is a CLOSED-vocabulary model
  (OOVs eliminated from training data and are forbidden in test data)
Good-Turing discounting was applied.
1-gram frequency of frequency : 91 
2-gram frequency of frequency : 993 1749 500 203 77 33 84 
3-gram frequency of frequency : 1911 2588 606 256 93 38 114 
1-gram discounting ratios : 
2-gram discounting ratios : 
3-gram discounting ratios : 
This file is in the ARPA-standard format introduced by Doug Paul.

p(wd3|wd1,wd2)= if(trigram exists)           p_3(wd1,wd2,wd3)
                else if(bigram w1,w2 exists) bo_wt_2(w1,w2)*p(wd3|wd2)
                else                         p(wd3|w2)

p(wd2|wd1)= if(bigram exists) p_2(wd1,wd2)
            else              bo_wt_1(wd1)*p_1(wd2)

All probs and back-off weights (bo_wt) are given in log10 form.

Data formats:

Beginning of data mark: \data\
ngram 1=nr            # number of 1-grams
ngram 2=nr            # number of 2-grams
ngram 3=nr            # number of 3-grams

\1-grams:
p_1     wd_1 bo_wt_1
\2-grams:
p_2     wd_1 wd_2 bo_wt_2
\3-grams:
p_3     wd_1 wd_2 wd_3 

end of data mark: \end\

\data\
ngram 1=1552
ngram 2=3768
ngram 3=5718

\1-grams:
-0.6661 </s>	-3.3817
-0.6659 <s>	-3.3868
-3.6760 ACHACHI	-0.5934
-3.6760 ACHACHILA	-0.6725
-3.8521 ACHACHILANITHWA	-0.4965
-3.6760 ACHAKU	-0.6725
-3.2500 ACHUMANINA	-1.1137
-3.6760 ACHUQA	-0.6725
-3.4541 AJANU	-0.8485
-3.3080 AJLLIÑA	-0.8487
-3.4541 AKA	-0.8485
-3.6760 AKANA	-0.6725
-3.6760 AKANAKA	-0.6725
-3.3749 AKAXA	-0.8940
-3.6760 AKJA	-0.6725
-3.6760 ALALAWA	-0.5934
-3.5510 ALASITAYA	-0.7394
-3.3080 ALAXA	-0.9540
-3.1531 ALAYA	-1.0402
-3.1988 ALAÑA	-1.0081
-4.1531 ALAÑATAKI	-0.3716
-3.5510 ALAÑÄNITI	-0.6726
-3.3749 ALCALDIARU	-0.9998
-4.1531 ALCALDIARUWA	-0.4771
-3.6760 ALIQATA	-0.6722
-3.6760 ALIRI	-0.6725
-3.8521 ALJAÑA	-0.5934
-3.6760 ALJIRI	-0.6722
-3.6760 ALLCHHI	-0.6723
-3.6760 ALLPACHU	-0.6725
-3.6760 ALPAQA	-0.6724
-3.3080 ALT’AÑA	-0.8487
-3.1988 ALWA	-1.0076
-3.6760 ALWAXA	-0.6984
-3.6760 AMARU	-0.6725
-3.6760 AMP	-0.6985
-3.3749 AMPARA	-0.8941
-3.8521 AMPARANAKANITAWA	-0.4965
-3.8521 AMTAÑA	-0.5932
-3.8521 AMUKT’AM	-0.5933
-3.6760 AMUKT’APXAM	-0.5934
-3.8521 AMUKT’APXAMTI	-0.4965
-3.6760 AMUYKTHTI	-0.5934
-3.6760 AMUYUNAKA	-0.6989
-3.6760 ANATA	-0.6725
-3.8521 ANATAPKI	-0.4965
-3.8521 ANATAPKITI	-0.4965
-3.8521 ANATAPKTA	-0.4965
-3.8521 ANATAPKTAN	-0.4965
-3.8521 ANATAPKTANTI	-0.4965
-3.8521 ANATAPKTATI	-0.4965
-3.8521 ANATAPKTHA	-0.4965
-3.8521 ANATAPKTHTI	-0.4965
-4.1531 ANATAPXARAKIWA	-0.3716
-3.8521 ANATAPXITI	-0.4965
-3.8521 ANATAPXIWA	-0.4965
-3.8521 ANATAPXTANTI	-0.4965
-3.5510 ANATAPXTANWA	-0.6726
-3.8521 ANATAPXTATI	-0.4965
-3.5510 ANATAPXTAWA	-0.6726
-3.8521 ANATAPXTHTI	-0.4965
-3.5510 ANATAPXTHWA	-0.6726
-3.8521 ANATASKTHWA	-0.4965
-3.4541 ANATAÑA	-0.8478
-3.1531 ANATIRI	-1.0079
-3.8521 ANATITI	-0.4965
-3.5510 ANATIWA	-0.6726
-3.8521 ANATKI	-0.4965
-3.8521 ANATKITI	-0.4965
-3.8521 ANATKTA	-0.4965
-3.8521 ANATKTAN	-0.4965
-3.8521 ANATKTANTI	-0.4965
-3.8521 ANATKTATI	-0.4965
-3.8521 ANATKTHA	-0.4965
-3.8521 ANATKTHTI	-0.4965
-3.8521 ANATTANTI	-0.4965
-3.5510 ANATTANWA	-0.6726
-3.8521 ANATTATI	-0.4965
-3.4541 ANATTAWA	-0.7396
-3.8521 ANATTHA	-0.4965
-3.8521 ANATTHTI	-0.4965
-3.5510 ANATTHWA	-0.6726
-3.6760 ANCHA	-0.6725
-2.3469 ANGELICA	-1.8176
-3.8521 ANQA	-0.5932
-3.6760 ANQANA	-0.6989
-3.3080 ANSATATAÑA	-0.8487
-3.6760 ANTI	-0.6724
-3.3080 ANTUTAÑA	-0.8487
-3.3749 ANU	-0.8941
-3.8521 ANUNITATI	-0.4965
-3.8521 ANUNITHWA	-0.4965
-3.8521 APARAÑA	-0.5934
-3.6760 APILLA	-0.6725
-3.8521 APITU	-0.4965
-3.5510 APNAQIRI	-0.7394
-3.8521 APNAQIRIWA	-0.4965
-4.1531 APNAQTHA	-0.3716
-3.3080 APTAÑA	-0.8487
-3.8521 ARKAÑA	-0.5934
-3.8521 ARMAÑA	-0.5934
-3.8521 ARNAQAÑA	-0.5934
-3.6760 ARSUM	-0.6725
-3.6760 ARSUPXAM	-0.5934
-3.5510 ARSUWIRUSA	-0.7780
-3.8521 ARSUÑA	-0.5931
-3.5510 ARU	-0.7780
-3.0391 ARUMA	-1.1721
-3.8521 ARUMAKIPANA	-0.4965
-3.5510 ARUMANTHI	-0.6726
-3.8521 ARUMATI	-0.4965
-3.6760 ARUMAWA	-0.5934
-3.1988 ARUNTAÑA	-0.9736
-3.6760 ARXATIRI	-0.6725
-3.6760 ARXATIRIWA	-0.5934
-3.4541 ARÜTWA	-0.8448
-3.3749 ASILORU	-0.9998
-4.1531 ASILORUWA	-0.4771
-3.6760 ASIRU	-0.6725
-3.8521 ASJARIRI	-0.5933
-3.2500 ASKI	-1.1137
-3.6760 ASU	-0.6987
-3.5510 ATAMIRI	-0.7780
-3.0391 ATI	-1.1697
-3.8521 ATIPAÑA	-0.5934
-3.6760 ATÜRU	-0.6721
-3.6760 AWATIRI	-0.6724
-3.6760 AWICHA	-0.6725
-3.8521 AWICHANITHWA	-0.4965
-3.6760 AWILA	-0.6725
-3.5510 AWKCH’I	-0.7394
-3.6760 AWKI	-0.6724
-3.8521 AWKIPAXA	-0.6018
-3.3080 AWQA	-0.9539
-3.5510 AWTI	-0.7777
-3.8521 AWTJAÑA	-0.5930
-3.8521 AWTJITU	-0.4965
-3.8521 AWTU	-0.6020
-3.6760 AXSARIRI	-0.6725
-3.6760 AYCHA	-0.6725
-3.3080 AYNACHA	-0.9540
-3.6760 AÑATHUYA	-0.5934
-4.1531 BENINKIRÏTHWA	-0.3716
-3.2500 CALACOTONA	-1.1137
-3.8521 CALIXTONA	-0.6020
-3.8521 CARLAKI	-0.4965
-3.8521 CARLAKITI	-0.4965
-3.8521 CARLAKTA	-0.4965
-3.8521 CARLAKTATI	-0.4965
-3.6760 CARLAKTHA	-0.5934
-3.8521 CARLAKTHTI	-0.4965
-3.8521 CARLATATI	-0.4965
-3.8521 CARLATAWA	-0.4965
-3.8521 CARLATHTI	-0.4965
-3.8521 CARLATHWA	-0.4965
-3.8521 CARLATI	-0.4965
-3.8521 CARLAWA	-0.4965
-4.1531 CENTERARUWA	-0.4771
-3.1531 CHACHA	-1.0080
-3.6760 CHAKA	-0.6725
-3.6760 CHALLWA	-0.5934
-3.6760 CHARA	-0.6725
-3.5510 CHATIYAÑA	-0.7775
-3.5510 CHAYRU	-0.7972
-3.8521 CHHAQHAÑA	-0.5934
-3.6760 CHHICHHILLANKHA	-0.6725
-3.8521 CHHICHHIRANKHA	-0.5933
-3.5510 CHHIJCHHI	-0.7394
-3.6760 CHHIJCHHISKITI	-0.5934
-3.5510 CHHIJCHHISKIWA	-0.7394
-3.8521 CHHIJCHHIÑA	-0.5931
-3.1988 CHHIJLLAÑA	-1.0081
-3.4541 CHHIPU	-0.7971
-3.6760 CHHIPUNAKANIWA	-0.5934
-3.6760 CHHIQHANQARA	-0.6724
-3.8521 CHHIRI	-0.4965
-3.5510 CHHIWCHHI	-0.7394
-3.6760 CHHÜJTAYIRIWA	-0.6970
-2.8978 CHIKA	-1.3947
-3.6760 CHIKATA	-0.6725
-3.6760 CHIKAXA	-0.6989
-3.6760 CHIKÜRUXA	-0.6970
-3.6760 CHINUQA	-0.6725
-3.8521 CHIQATI	-0.4965
-3.8521 CHIQAWA	-0.4965
-3.3749 CHUKI	-0.9541
-3.3080 CHUPIKA	-0.9539
-3.8521 CHURAÑA	-0.5934
-3.5510 CHURI	-0.7394
-3.4541 CHURITA	-0.7974
-3.3749 CHUYMA	-0.8486
-3.8521 CHUYMANIWA	-0.6001
-3.6760 CH’AJA	-0.5934
-3.2500 CH’AKHA	-0.9732
-3.1117 CH’AKUÑA	-1.0702
-3.6760 CH’AMA	-0.6725
-3.3080 CH’AMAMPI	-0.9540
-3.5510 CH’AMAWA	-0.6726
-3.6760 CH’AMUÑA	-0.6725
-3.6760 CH’APAQA	-0.6725
-3.6760 CH’APHAQA	-0.6725
-3.6760 CH’ARKHI	-0.6725
-3.8521 CH’ASKA	-0.5934
-3.6760 CH’AXWAKU	-0.6725
-3.3749 CH’IKHI	-0.8940
-4.1531 CH’IKHIPXITI	-0.3716
-3.8521 CH’IKHIPXIWA	-0.4965
-3.8521 CH’IKHITHWA	-0.4965
-3.8521 CH’IKHITI	-0.4965
-3.6760 CH’IKHIWA	-0.5934
-3.3080 CH’IQA	-0.8487
-3.6760 CH’IWI	-0.6725
-3.6760 CH’IWITI	-0.5934
-3.6760 CH’IWIWA	-0.6725
-3.6760 CH’IXI	-0.6725
-3.1531 CH’IYARA	-1.0397
-3.3749 CH’UKURI	-0.8485
-3.1988 CH’UMPHI	-1.0702
-4.1531 CH’UMPHINAKAWA	-0.3716
-4.1531 CH’UMPHIWA	-0.3716
-3.6760 CH’UQI	-0.6725
-3.5510 CH’USA	-0.7391
-3.6760 CH’USPI	-0.6725
-3.1117 CH’UXÑA	-1.0401
-3.6760 CH’UXÑAMPIWA	-0.5934
-3.6760 CH’UÑU	-0.6725
-4.1531 COCHABAMBATÄTHWA	-0.3716
-3.3749 CONSERVATORIORU	-0.9998
-4.1531 CONSERVATORIORUWA	-0.4771
-4.1531 COPACABANANA	-0.4771
-3.8521 COPACABANARUWA	-0.6017
-4.1531 COTA	-0.4771
-4.1531 COTANA	-0.4770
-3.4541 CRUZ	-0.9029
-4.1531 CUADRATRACK	-0.4771
-3.8521 DANIEL	-0.6020
-4.1531 DEL	-0.4771
-3.6760 FABRICIOWA	-0.5934
-3.2500 FRICASE	-1.2302
-3.8521 FUTBOL	-0.6020
-3.3749 GIMNASIORU	-0.9998
-3.6760 GIMNASIORUWA	-0.7777
-3.8521 GUITARRA	-0.6020
-3.6760 ICHUMAMA	-0.6725
-3.6760 ICHUTATA	-0.6725
-3.6760 ICHUWAWA	-0.6725
-3.6760 IJMA	-0.5934
-3.5510 IKISAWA	-0.7780
-3.3080 IKITATAÑA	-0.9540
-3.8521 IKIWA	-0.6020
-3.8521 IKIÑA	-0.5934
-3.5510 IKKITI	-0.6726
-3.6760 IKTHA	-0.6987
-3.6760 IKTHWA	-0.5934
-3.0391 ILLAPA	-1.1694
-3.3080 ILLAPAÑA	-0.8487
-3.3080 ILLAPJAÑA	-0.9540
-3.6760 ILLAPÜRU	-0.5934
-3.8521 IMANTAÑA	-0.5934
-3.8521 IMAÑA	-0.5934
-3.6760 INA	-0.6989
-3.6760 INAMAYA	-0.6725
-3.8521 INTERNETANIKTHTI	-0.4965
-3.6760 INTI	-0.6987
-3.6760 IPA	-0.6725
-3.5510 IPAJAXA	-0.8446
-3.6760 IPALA	-0.6725
-3.6760 IPI	-0.6725
-3.6760 IRAQT’ITAYA	-0.6725
-3.8521 IRNAQAWI	-0.5932
-3.8521 IRNAQAÑA	-0.4965
-3.4541 IRPIRI	-0.8480
-3.3749 ISI	-0.9540
-3.8521 ISINI	-0.6017
-4.1531 ISLA	-0.4771
-3.5510 ISPILLU	-0.7393
-4.1531 ISPILLUNAKAMAXA	-0.4771
-3.6760 IST’AM	-0.6725
-3.6760 IST’AMTI	-0.6688
-3.6760 IST’APXAM	-0.6725
-3.6760 IST’APXAMTI	-0.6688
-3.8521 IST’AÑA	-0.5934
-3.6760 IWIJA	-0.6725
-3.6760 IWISA	-0.6725
-3.5510 IXWIRI	-0.7394
-3.8521 IYAWA	-0.6015
-3.8521 JACHAÑA	-0.5934
-3.6760 JACHT’APUNIWA	-0.6985
-3.1988 JACH’A	-1.0078
-4.1531 JACH’ANAKAWA	-0.3716
-4.1531 JACH’APXTHTI	-0.3716
-3.8521 JACH’APXTHWA	-0.4965
-3.8521 JACH’ATHTI	-0.4965
-3.8521 JACH’ATHWA	-0.4965
-3.8521 JACH’ATI	-0.4965
-3.4541 JACH’AWA	-0.7396
-3.6760 JAKASIRITHWA	-0.6987
-3.6760 JAKASTHA	-0.5934
-3.8521 JAKAÑA	-0.5934
-3.6760 JAKHU	-0.5934
-3.4541 JAKHURI	-0.7974
-3.6760 JAKHUWIPAXA	-0.5934
-3.8521 JAKHUÑA	-0.5934
-3.5510 JAK’A	-0.7394
-4.1531 JAK’ANA	-0.4770
-3.6760 JAK’U	-0.6725
-3.1531 JALANTA	-1.0083
-3.6760 JALJTATA	-0.6723
-3.1531 JALLU	-1.0695
-3.6760 JALLUSKITI	-0.6725
-3.6760 JALLUSKIWA	-0.6725
-3.8521 JALLUÑA	-0.5934
-3.3080 JALSU	-0.9539
-3.8521 JAMP’ATIÑA	-0.5934
-3.6760 JAMP’ATU	-0.6725
-3.6760 JAMUQIRI	-0.6725
-2.1663 JANI	-2.1104
-1.7765 JANITI	-2.4845
-1.6731 JANIWA	-2.4781
-3.3080 JANK’A	-0.9540
-3.1531 JANK’AKI	-1.0083
-2.8309 JANQ’U	-1.3557
-3.6760 JANQ’ULLA	-0.6723
-3.1117 JAQI	-1.0693
-3.6760 JAQICHATA	-0.6725
-3.6760 JAQINA	-0.6989
-3.4541 JAQIWA	-0.7396
-3.6760 JARARANKHU	-0.6725
-3.6760 JARU	-0.6725
-3.6760 JASA	-0.6725
-3.8521 JASAKI	-0.4965
-3.6760 JASAWA	-0.5934
-3.8521 JAT’IÑA	-0.6019
-3.8521 JAWIRARUWA	-0.6017
-3.3080 JAWQ’JAÑA	-0.8487
-3.8521 JAWSAÑA	-0.5934
-3.8521 JAXU	-0.4965
-3.5510 JAYA	-0.7394
-3.8521 JAYANA	-0.6018
-3.8521 JAYATI	-0.4965
-3.8521 JAYAWA	-0.4965
-3.6760 JAYLLIRI	-0.6721
-3.8521 JAYLLIÑA	-0.5934
-3.1531 JAYP’U	-1.0692
-3.8521 JAYP’UKIPANA	-0.4965
-3.6760 JAYP’URUXA	-0.6966
-3.5510 JAYRA	-0.7394
-4.1531 JAYRAPXTATI	-0.3716
-3.8521 JAYRAPXTAWA	-0.4965
-3.6760 JAYRASISKTAWA	-0.5934
-3.8521 JAYRASIÑA	-0.5934
-3.8521 JAYRATATI	-0.4965
-3.3749 JAYRATAWA	-0.7976
-3.6760 JAYU	-0.6725
-3.6760 JICHHÜRU	-0.5934
-3.6760 JIKHANI	-0.6725
-3.5510 JIKISIPXTHA	-0.7394
-3.8521 JIKISIÑAJAWA	-0.4965
-3.8521 JIKISIÑKAMA	-0.4965
-3.3749 JILA	-0.8942
-3.8521 JILANAKANITATI	-0.4965
-3.8521 JILANITHWA	-0.4965
-3.8521 JILATAJAMPIWA	-0.6020
-3.6760 JILATAJAWA	-0.6989
-3.8521 JILAÑA	-0.5931
-3.4541 JILÏRI	-0.8449
-3.5510 JINCHU	-0.7394
-2.6760 JISA	-1.5078
-3.8521 JISKT’AÑA	-0.5934
-3.1988 JISK’A	-1.0079
-3.8521 JISK’AWA	-0.4965
-3.5510 JIST’ANTATA	-0.7780
-3.1988 JIST’ANTAÑA	-0.9359
-3.3080 JIST’ARAÑA	-0.9540
-2.8309 JIWA	-1.4612
-3.1988 JIWAKI	-1.0401
-4.1531 JIWAKIPXTANTI	-0.3716
-3.8521 JIWAKIPXTANWA	-0.4965
-3.8521 JIWAKITANTI	-0.4965
-3.8521 JIWAKITANWA	-0.4965
-3.6760 JIWAKITHWA	-0.5934
-3.5510 JIWAKIWA	-0.6726
-3.6760 JIWASA	-0.5934
-3.6760 JIWASANAKA	-0.5934
-2.0924 JIWASANAKAXA	-2.1218
-3.8521 JIWASANKITI	-0.4965
-3.5510 JIWASANKIWA	-0.6726
-3.8521 JIWASANKKITI	-0.4965
-2.0812 JIWASAXA	-2.1277
-3.8521 JIWAÑA	-0.5934
-3.4541 JIWT’AYIRI	-0.7974
-3.8521 JIWXÄ	-0.6016
-3.6760 JUKU	-0.6725
-3.6760 JUKUMARI	-0.6725
-3.6760 JUK’A	-0.6725
-3.5510 JUK’AMPI	-0.7775
-3.6760 JUMA	-0.6725
-3.4541 JUMANAKA	-0.8484
-2.0703 JUMANAKAXA	-2.1391
-3.6760 JUMANKITI	-0.5934
-3.8521 JUMANKIWA	-0.4965
-3.8521 JUMANKKITI	-0.4965
-3.8521 JUMASA	-0.6020
-2.8521 JUMASTI	-1.2557
-1.9977 JUMAXA	-2.2052
-3.8521 JUMP’IWA	-0.6020
-3.2500 JUNT’U	-1.0079
-3.6760 JUNT’USKITI	-0.6725
-3.6760 JUNT’USKIWA	-0.6725
-3.6760 JUNT’UTI	-0.6725
-3.4541 JUNT’UWA	-0.7974
-3.6760 JUNT’ÜMA	-0.5934
-3.6760 JUPA	-0.6725
-3.6760 JUPANAKA	-0.6725
-2.0849 JUPANAKAXA	-2.1273
-3.8521 JUPANKITI	-0.4965
-3.8521 JUPANKIWA	-0.4965
-3.8521 JUPANKKITI	-0.4965
-1.9201 JUPAXA	-2.1717
-3.6760 JUPHA	-0.6725
-3.6760 JUQ’ARA	-0.6725
-3.6760 JURPÜRU	-0.6725
-3.6760 JUTAM	-0.6725
-3.6760 JUTAMTI	-0.6688
-3.6760 JUTAPXAM	-0.5934
-3.6760 JUTAPXAMTI	-0.6688
-3.8521 JUTAÑA	-0.5934
-3.3080 JUTIRI	-0.9540
-3.6760 JUYKHU	-0.6725
-3.2500 JUYPHI	-1.0408
-3.5510 KALLACHI	-0.6726
-3.6760 KAMISAKI	-0.5934
-3.6760 KATARI	-0.6723
-3.6760 KATUQIRIXA	-0.6989
-2.8743 KAWKI	-1.2910
-3.6760 KAWKINKIRÏSA	-0.5934
-3.6760 KAWKINKIRÏTASA	-0.5934
-3.4541 KAWKINSA	-0.9028
-3.6760 KAWKIRI	-0.6725
-3.6760 KAWKIRUSA	-0.6989
-3.6760 KAYA	-0.6725
-3.6760 KAYU	-0.6725
-3.8521 KAYUJAXA	-0.6019
-3.3749 KAYUNI	-0.9540
-3.6760 KAYUNIWA	-0.6988
-3.6760 KHAKHA	-0.6725
-3.6760 KHAYA	-0.6725
-3.5510 KHAYANA	-0.7389
-3.6760 KHAYANAKA	-0.6721
-3.8521 KHAYASTI	-0.4965
-3.8521 KHAYAXA	-0.6019
-3.6760 KHITHÏPXTSA	-0.6724
-3.0739 KHITI	-1.1230
-4.1531 KHITIMPISA	-0.4770
-3.6760 KHITINAKAPXTHSA	-0.6721
-3.8521 KHITINKISA	-0.4965
-3.8521 KHITISA	-0.5968
-3.0070 KHITÏTSA	-1.2155
-3.6760 KHUCHHI	-0.6724
-3.6760 KHULLU	-0.6724
-3.6760 KHUNU	-0.6725
-3.6760 KHUNUSKITI	-0.6725
-3.6760 KHUNUSKIWA	-0.6725
-3.8521 KHUNUÑA	-0.5934
-3.6760 KHURI	-0.6725
-3.8521 KHUYUÑA	-0.5934
-3.3080 KILLIÑA	-0.8487
-3.3080 KILLT’AÑA	-0.9540
-2.2723 KIMSA	-1.8225
-2.8978 KIMSANI	-1.2587
-3.4541 KIMSAQALLQU	-0.8385
-3.0391 KIMSAQALLQUNI	-1.1340
-3.5510 KIMSAQALLQÜRI	-0.7394
-3.5510 KIMSÏRI	-0.7394
-4.1531 KUKA	-0.4771
-3.6760 KULIRASKIWA	-0.5934
-3.6760 KULIRASKTHWA	-0.5934
-3.5510 KULLAKA	-0.7394
-3.6760 KULLAKAJAMPI	-0.6989
-3.6760 KULLI	-0.6725
-2.6479 KUNA	-1.5348
-3.5510 KUNAMPISA	-0.6726
-3.5510 KUNAPACHA	-0.6726
-2.6346 KUNAS	-1.5421
-2.3469 KUNASA	-1.8353
-3.5510 KUNATA	-0.6726
-3.6760 KUNAWSA	-0.6725
-3.3749 KUNJAMA	-0.8940
-3.8521 KUNJAMASA	-0.6020
-3.5510 KUNKA	-0.7391
-3.8521 KUNKAPAXA	-0.6020
-2.9770 KUNSA	-1.3418
-3.3080 KUPI	-0.9540
-2.9770 KURMI	-1.2131
-3.6760 KURMIWA	-0.6725
-3.6760 KURMÜRU	-0.5934
-3.6760 KURURU	-0.6725
-3.8521 KUSA	-0.6020
-3.3749 KUSI	-0.8941
-3.8521 KUSISIÑA	-0.5934
-3.5510 KUTI	-0.7394
-3.8521 KUTIYAÑA	-0.5934
-3.8521 KWONDO	-0.6988
-3.3080 K’ACHA	-0.9539
-3.1531 K’ACHAKI	-1.0402
-3.6760 K’ALLA	-0.6725
-3.6760 K’ARA	-0.6725
-3.3080 K’ARI	-0.9301
-3.8521 K’ARISIÑA	-0.5934
-3.5510 K’AWNA	-0.7387
-3.6760 K’AYRA	-0.5934
-3.5510 K’ISA	-0.8447
-3.6760 K’ISIMIRA	-0.5934
-3.6760 K’ULLU	-0.6725
-3.8521 K’UMARA	-0.4965
-3.3080 K’UMT’AÑA	-0.9540
-3.8521 K’UMU	-0.5933
-3.6760 K’UTI	-0.6724
-2.2839 LA	-1.8785
-3.0739 LAKA	-1.0981
-3.3749 LAPAKA	-0.8935
-3.5510 LAPHI	-0.6726
-3.6760 LAPHINI	-0.6989
-3.6760 LAP’A	-0.6725
-3.6760 LAQUSI	-0.6725
-3.5510 LAQ’A	-0.7394
-3.6760 LAQ’U	-0.5934
-3.6760 LARAMA	-0.6721
-3.8521 LARAMAWA	-0.4965
-3.3080 LARI	-0.9356
-3.8521 LARIJAXA	-0.6020
-3.8521 LARKI	-0.4965
-3.8521 LARKITI	-0.4965
-3.8521 LARKTA	-0.4965
-3.8521 LARKTAN	-0.4965
-3.8521 LARKTANTI	-0.4965
-3.8521 LARKTATI	-0.4965
-3.8521 LARKTHA	-0.4965
-3.8521 LARKTHTI	-0.4965
-3.8521 LARTANTI	-0.4965
-3.8521 LARTANWA	-0.4965
-3.8521 LARTATI	-0.4965
-3.8521 LARTAWA	-0.4965
-3.8521 LARTHTI	-0.4965
-3.8521 LARTHWA	-0.4965
-3.8521 LARUPKI	-0.4965
-3.8521 LARUPKITI	-0.4965
-3.8521 LARUPKTA	-0.4965
-3.8521 LARUPKTAN	-0.4965
-3.8521 LARUPKTANTI	-0.4965
-3.8521 LARUPKTATI	-0.4965
-3.8521 LARUPKTHA	-0.4965
-3.8521 LARUPKTHTI	-0.4965
-3.8521 LARUPXITI	-0.4965
-3.8521 LARUPXIWA	-0.4965
-3.8521 LARUPXTANTI	-0.4965
-3.8521 LARUPXTANWA	-0.4965
-3.8521 LARUPXTATI	-0.4965
-3.8521 LARUPXTAWA	-0.4965
-3.8521 LARUPXTHTI	-0.4965
-3.8521 LARUPXTHWA	-0.4965
-3.8521 LARUTI	-0.4965
-3.8521 LARUWA	-0.4965
-3.3080 LAXRA	-0.8940
-4.1531 LEONARDO	-0.4770
-3.8521 LEONARDOWA	-0.4965
-3.3749 LIQI	-0.8485
-3.6760 LIRQ’U	-0.6725
-3.6760 LLAJLLA	-0.6725
-3.8521 LLAKISIMTI	-0.4965
-3.8521 LLAKISIÑA	-0.5934
-3.5510 LLAMAYU	-0.7391
-3.6760 LLAMP’U	-0.6988
-3.6760 LLAWCH’A	-0.6725
-3.5510 LLAYTHA	-0.7394
-3.8521 LLAYTHAKI	-0.4965
-4.1531 LLAYTHAKITI	-0.3716
-3.8521 LLAYTHAPKI	-0.4965
-4.1531 LLAYTHAPKITI	-0.3716
-3.6760 LLUMPAQA	-0.6723
-3.6760 LLUNK’U	-0.5934
-3.8521 LLUNK’UKTAN	-0.4965
-4.1531 LLUNK’UKTANTI	-0.3716
-3.8521 LLUNK’UPKTAN	-0.4965
-4.1531 LLUNK’UPKTANTI	-0.3716
-3.3080 LLUNK’USIÑA	-0.8487
-3.4541 LLÄTUNKA	-0.7876
-2.9770 LLÄTUNKANI	-1.1468
-3.5510 LLÄTUNKÏRI	-0.7394
-4.1531 LUCIANAWA	-0.3716
-3.3749 LUK’ANA	-0.8941
-3.6760 LULI	-0.6725
-3.6760 LUNQHU	-0.6724
-3.8521 LUNQHUKTA	-0.4965
-4.1531 LUNQHUKTATI	-0.3716
-3.8521 LUNQHUPKTA	-0.4965
-4.1531 LUNQHUPKTATI	-0.3716
-3.5510 LUNTHATAPXITU	-0.6726
-3.8521 LUNTHATAÑA	-0.5934
-3.6760 LUPI	-0.6723
-3.6760 LUPISKITI	-0.6725
-3.6760 LUPISKIWA	-0.6724
-4.1531 LUPIÑA	-0.3716
-4.1531 LUP’IÑA	-0.3716
-3.8521 LUP’KITI	-0.4965
-3.6760 LURAM	-0.6725
-3.6760 LURAMTI	-0.6688
-3.6760 LURAPXAM	-0.5934
-3.5510 LURAPXAMTI	-0.7358
-3.5510 LURAPXAÑÄNI	-0.6726
-3.6760 LURAPXTA	-0.5934
-3.6760 LURASKAPXTA	-0.5934
-3.8521 LURASKTHA	-0.4965
-3.4541 LURAWINIKTHTI	-0.7396
-3.6760 LURAWINITHWA	-0.5934
-3.4541 LURAÑA	-0.8479
-3.5510 LURIRI	-0.7394
-3.6760 LURIRISA	-0.5934
-3.4541 LURTHA	-0.7974
-3.6760 LURT’AÑA	-0.6989
-3.5510 MACHAQA	-0.7393
-3.6760 MAKHATAWINKTASA	-0.5934
-3.3080 MAKHATAÑA	-0.9540
-3.5510 MAKHATAÑÄNI	-0.6726
-3.8521 MALENAMPI	-0.6020
-3.3749 MALLASARU	-0.9998
-4.1531 MALLASARUWA	-0.4771
-3.6760 MALLQ’A	-0.6725
-3.6760 MAMA	-0.6725
-3.6760 MAMAJAXA	-0.6989
-3.6760 MAMANI	-0.6725
-3.6760 MAMURAYA	-0.6725
-3.8521 MANQHA	-0.5930
-3.6760 MANQHATA	-0.6989
-3.6760 MANQ’AM	-0.6725
-3.6760 MANQ’AMTI	-0.6688
-3.6760 MANQ’APXAM	-0.6688
-3.5510 MANQ’APXAMTI	-0.6726
-3.8521 MANQ’ASKTHWA	-0.4965
-3.8521 MANQ’ATA	-0.6020
-3.6760 MANQ’AXA	-0.6983
-2.8978 MANQ’AÑA	-1.3554
-3.8521 MANQ’AÑAMAWA	-0.4965
-3.6760 MANQ’IRI	-0.6988
-3.6760 MANTAM	-0.6725
-3.6760 MANTAMTI	-0.6688
-3.6760 MANTAPXAM	-0.6725
-3.5510 MANTAPXAMTI	-0.7358
-4.1531 MANTAWI	-0.4770
-3.8521 MANTAWINAKA	-0.6019
-3.8521 MANTAWIXA	-0.4965
-3.8521 MANTAÑA	-0.5934
-3.5510 MANTIXA	-0.7371
-3.8521 MAQ’AÑATAKI	-0.6018
-3.0391 MARA	-1.1937
-3.8521 MARANIKI	-0.4965
-3.8521 MARANIKITI	-0.4965
-3.8521 MARANIKTA	-0.4965
-3.8521 MARANIKTAN	-0.4965
-3.8521 MARANIKTANTI	-0.4965
-3.8521 MARANIKTATI	-0.4965
-3.8521 MARANIKTHA	-0.4965
-3.6760 MARANIKTHTI	-0.5934
-3.8521 MARANIPKI	-0.4965
-3.8521 MARANIPKITI	-0.4965
-3.8521 MARANIPKTA	-0.4965
-3.8521 MARANIPKTAN	-0.4965
-3.8521 MARANIPKTANTI	-0.4965
-3.8521 MARANIPKTATI	-0.4965
-3.6760 MARANIPKTHA	-0.5934
-3.8521 MARANIPKTHTI	-0.4965
-3.8521 MARANIPXITI	-0.4965
-3.8521 MARANIPXIWA	-0.4965
-3.8521 MARANIPXTANTI	-0.4965
-3.8521 MARANIPXTANWA	-0.4965
-3.8521 MARANIPXTATI	-0.4965
-3.8521 MARANIPXTAWA	-0.4965
-3.8521 MARANIPXTHTI	-0.4965
-3.8521 MARANIPXTHWA	-0.4965
-3.8521 MARANITANTI	-0.4965
-3.8521 MARANITANWA	-0.4965
-3.4541 MARANITASA	-0.7396
-3.6760 MARANITATI	-0.5934
-3.8521 MARANITAWA	-0.4965
-3.8521 MARANITHTI	-0.4965
-3.1988 MARANITHWA	-0.9729
-3.8521 MARANITI	-0.4965
-3.3080 MARANIWA	-0.8487
-3.6760 MARKA	-0.6719
-3.8521 MARKANKIRIKI	-0.4965
-3.8521 MARKANKIRIKITI	-0.4965
-3.8521 MARKANKIRIPKI	-0.4965
-3.8521 MARKANKIRIPKITI	-0.4965
-3.8521 MARKANKIRIPKTAN	-0.4965
-3.8521 MARKANKIRIPKTHTI	-0.4965
-3.8521 MARKANKIRIPXITI	-0.4965
-3.8521 MARKANKIRIPXIWA	-0.4965
-3.6760 MARKANKIRITANWA	-0.5934
-3.8521 MARKANKIRITI	-0.4965
-3.3749 MARKANKIRIWA	-0.7976
-3.8521 MARKANKIRÏKTA	-0.4965
-3.8521 MARKANKIRÏKTAN	-0.4965
-3.8521 MARKANKIRÏKTANTI	-0.4965
-3.8521 MARKANKIRÏKTATI	-0.4965
-3.8521 MARKANKIRÏKTHA	-0.4965
-3.8521 MARKANKIRÏKTHTI	-0.4965
-3.8521 MARKANKIRÏPKTA	-0.4965
-3.8521 MARKANKIRÏPKTANTI	-0.4965
-3.8521 MARKANKIRÏPKTATI	-0.4965
-3.8521 MARKANKIRÏPKTHA	-0.4965
-3.8521 MARKANKIRÏPXTANTI	-0.4965
-3.6760 MARKANKIRÏPXTANWA	-0.5934
-3.8521 MARKANKIRÏPXTATI	-0.4965
-3.8521 MARKANKIRÏPXTAWA	-0.4965
-3.8521 MARKANKIRÏPXTHTI	-0.4965
-3.8521 MARKANKIRÏPXTHWA	-0.4965
-3.8521 MARKANKIRÏTANTI	-0.4965
-3.8521 MARKANKIRÏTATI	-0.4965
-3.8521 MARKANKIRÏTAWA	-0.4965
-3.8521 MARKANKIRÏTHTI	-0.4965
-3.1531 MARKANKIRÏTHWA	-1.0076
-3.8521 MARKARUWA	-0.6017
-3.6760 MARKATAKI	-0.5934
-3.8521 MARKATAKITI	-0.4965
-3.8521 MARKATAPKI	-0.4965
-3.6760 MARKATAPKITI	-0.5934
-3.6760 MARKATAPXITI	-0.5934
-3.6760 MARKATAPXIWA	-0.5934
-3.6760 MARKATASA	-0.5934
-3.8521 MARKATATI	-0.4965
-3.4541 MARKATAWA	-0.7396
-3.8521 MARKATÄKTA	-0.4965
-3.8521 MARKATÄKTAN	-0.4965
-4.1531 MARKATÄKTANTI	-0.3716
-3.8521 MARKATÄKTATI	-0.4965
-3.8521 MARKATÄKTHA	-0.4965
-3.8521 MARKATÄKTHTI	-0.4965
-3.8521 MARKATÄPKTA	-0.4965
-3.8521 MARKATÄPKTAN	-0.4965
-3.8521 MARKATÄPKTANTI	-0.4965
-3.8521 MARKATÄPKTATI	-0.4965
-3.8521 MARKATÄPKTHA	-0.4965
-3.8521 MARKATÄPKTHTI	-0.4965
-3.8521 MARKATÄPXTANTI	-0.4965
-3.8521 MARKATÄPXTANWA	-0.4965
-3.8521 MARKATÄPXTATI	-0.4965
-3.8521 MARKATÄPXTAWA	-0.4965
-3.8521 MARKATÄPXTHTI	-0.4965
-3.8521 MARKATÄPXTHWA	-0.4965
-3.8521 MARKATÄTANTI	-0.4965
-3.6760 MARKATÄTANWA	-0.5934
-3.6760 MARKATÄTASA	-0.5934
-3.8521 MARKATÄTATI	-0.4965
-3.8521 MARKATÄTAWA	-0.4965
-3.8521 MARKATÄTHTI	-0.4965
-3.3749 MARKATÄTHWA	-0.7976
-3.3080 MARMI	-0.9539
-2.8978 MASI	-1.2739
-3.5510 MASIJAMPI	-0.7780
-3.6760 MASIMAXA	-0.6980
-3.6760 MASINAKA	-0.5934
-3.8521 MASINAKAMASTI	-0.4965
-4.1531 MASINAKANITASA	-0.3716
-3.6760 MASINAKANITHWA	-0.5934
-3.4541 MASINITHWA	-0.7396
-3.8521 MASIPKI	-0.4965
-3.8521 MASIPKITI	-0.4965
-3.8521 MASIPKTA	-0.4965
-3.3749 MASIPKTAN	-0.7976
-3.5510 MASIPKTANTI	-0.6726
-3.8521 MASIPKTATI	-0.4965
-3.6760 MASIPKTHA	-0.5934
-3.8521 MASIPKTHTI	-0.4965
-3.8521 MASIPXITI	-0.4965
-3.8521 MASIPXIWA	-0.4965
-3.8521 MASIPXTANTI	-0.4965
-3.8521 MASIPXTANWA	-0.4965
-3.8521 MASIPXTATI	-0.4965
-3.8521 MASIPXTAWA	-0.4965
-3.8521 MASIPXTHTI	-0.4965
-3.8521 MASIPXTHWA	-0.4965
-3.8521 MASITANTI	-0.4965
-3.8521 MASITANWA	-0.4965
-3.6760 MATEMATICAXA	-0.6989
-4.1531 MATI	-0.4771
-3.0739 MAYA	-1.1724
-3.8521 MAYAMPI	-0.6019
-2.9226 MAYANI	-1.2111
-3.8521 MAYIÑA	-0.5934
-4.1531 MAYT’AÑA	-0.4770
-3.4541 MAYÏRI	-0.8481
-4.1531 MEGA	-0.4771
-3.6760 MISK’I	-0.6725
-3.8521 MISTKANI	-0.4965
-3.8521 MISTKANITI	-0.4965
-3.8521 MISTKAPXANI	-0.4965
-3.8521 MISTKAPXANITI	-0.4965
-3.8521 MISTKAPXAÑÄNI	-0.4965
-3.8521 MISTKAPXAÑÄNITI	-0.4965
-3.8521 MISTKAPXÄ	-0.4965
-3.8521 MISTKAPXÄTA	-0.4965
-3.8521 MISTKAPXÄTATI	-0.4965
-3.8521 MISTKAPXÄTI	-0.4965
-3.8521 MISTKAÑÄNI	-0.4965
-3.8521 MISTKAÑÄNITI	-0.4965
-3.8521 MISTKÄ	-0.4965
-3.8521 MISTKÄTA	-0.4965
-3.8521 MISTKÄTATI	-0.4965
-3.8521 MISTKÄTI	-0.4965
-3.6760 MISTUM	-0.5934
-3.6760 MISTUMTI	-0.6688
-3.8521 MISTUNITI	-0.4965
-3.8521 MISTUNIWA	-0.4965
-3.6760 MISTUPXAM	-0.6725
-3.5510 MISTUPXAMTI	-0.7358
-3.8521 MISTUPXANITI	-0.4965
-3.8521 MISTUPXANIWA	-0.4965
-3.8521 MISTUPXAÑÄNITI	-0.4965
-3.8521 MISTUPXAÑÄNIWA	-0.4965
-3.8521 MISTUPXÄTATI	-0.4965
-3.8521 MISTUPXÄTAWA	-0.4965
-3.8521 MISTUPXÄTI	-0.4965
-3.8521 MISTUPXÄWA	-0.4965
-3.5510 MISTUÑA	-0.7966
-3.8521 MISTUÑÄNITI	-0.4965
-3.8521 MISTUÑÄNIWA	-0.4965
-3.8521 MISTÜTATI	-0.4965
-3.8521 MISTÜTAWA	-0.4965
-3.8521 MISTÜTI	-0.4965
-3.8521 MISTÜWA	-0.4965
-3.6760 MUJLLI	-0.5934
-3.8521 MUNAPKI	-0.4965
-3.8521 MUNAPKITI	-0.4965
-3.8521 MUNAPKTA	-0.4965
-4.1531 MUNAPKTAN	-0.3716
-4.1531 MUNAPKTANTI	-0.3716
-3.8521 MUNAPKTATI	-0.4965
-3.8521 MUNAPKTHA	-0.4965
-3.8521 MUNAPKTHTI	-0.4965
-3.8521 MUNAPXITI	-0.4965
-3.8521 MUNAPXITUWA	-0.4965
-3.8521 MUNAPXIWA	-0.4965
-4.1531 MUNAPXTANTI	-0.3716
-4.1531 MUNAPXTANWA	-0.3716
-3.8521 MUNAPXTATI	-0.4965
-3.8521 MUNAPXTAWA	-0.4965
-3.8521 MUNAPXTHTI	-0.4965
-3.8521 MUNAPXTHWA	-0.4965
-3.1988 MUNATA	-1.0082
-3.8521 MUNATAMAXA	-0.4965
-3.8521 MUNATANIKI	-0.4965
-3.6760 MUNATANIKITI	-0.5934
-3.8521 MUNATANIKTA	-0.4965
-3.8521 MUNATANIKTAN	-0.4965
-3.8521 MUNATANIKTANTI	-0.4965
-3.8521 MUNATANIKTATI	-0.4965
-3.6760 MUNATANIKTHA	-0.5934
-3.2500 MUNATANIKTHTI	-0.8945
-3.8521 MUNATANIPKI	-0.4965
-3.5510 MUNATANIPKITI	-0.6726
-3.6760 MUNATANIPKTA	-0.5934
-3.8521 MUNATANIPKTAN	-0.4965
-3.6760 MUNATANIPKTANTI	-0.5934
-3.6760 MUNATANIPKTATI	-0.5934
-3.8521 MUNATANIPKTHA	-0.4965
-3.5510 MUNATANIPKTHTI	-0.6726
-3.8521 MUNATANIPXITI	-0.4965
-3.8521 MUNATANIPXIWA	-0.4965
-3.6760 MUNATANIPXTANTI	-0.5934
-3.6760 MUNATANIPXTANWA	-0.5934
-3.8521 MUNATANIPXTATI	-0.4965
-3.8521 MUNATANIPXTAWA	-0.4965
-3.8521 MUNATANIPXTHTI	-0.4965
-3.8521 MUNATANIPXTHWA	-0.4965
-3.8521 MUNATANITANTI	-0.4965
-3.8521 MUNATANITANWA	-0.4965
-3.0739 MUNATANITATI	-1.0406
-3.6760 MUNATANITAWA	-0.5934
-3.6760 MUNATANITHTI	-0.5934
-3.1531 MUNATANITHWA	-0.9736
-3.8521 MUNATANITI	-0.4965
-3.6760 MUNATANIWA	-0.5934
-3.6760 MUNATAWA	-0.6983
-3.2500 MUNAYPATANA	-1.1137
-3.8521 MUNAÑA	-0.5934
-3.8521 MUNITI	-0.4965
-3.8521 MUNIWA	-0.4965
-3.8521 MUNKI	-0.4965
-3.8521 MUNKITI	-0.4965
-3.8521 MUNKTA	-0.4965
-4.1531 MUNKTAN	-0.3716
-4.1531 MUNKTANTI	-0.3716
-3.8521 MUNKTATI	-0.4965
-3.8521 MUNKTHA	-0.4965
-3.8521 MUNKTHTI	-0.4965
-3.8521 MUNTA	-0.4965
-4.1531 MUNTANTI	-0.3716
-4.1531 MUNTANWA	-0.3716
-3.8521 MUNTATI	-0.4965
-3.8521 MUNTAWA	-0.4965
-3.6760 MUNTHA	-0.5934
-3.8521 MUNTHTI	-0.4965
-2.8107 MUNTHWA	-1.2923
-3.8521 MUNTKTHTI	-0.4965
-3.8521 MUQU	-0.5932
-3.5510 MURTURIYA	-0.7394
-3.3749 MUSEORU	-0.9997
-4.1531 MUSEORUWA	-0.4770
-3.5510 MUSICAXA	-0.7780
-3.6760 MUSK’AWA	-0.5934
-3.5510 MUSQ’A	-0.7394
-3.5510 MUYUNTATA	-0.7780
-3.6760 MUYUNTATÄTHWA	-0.6988
-3.1531 MÄ	-1.0982
-3.5510 MÄKI	-0.7392
-3.5510 NASA	-0.7391
-3.6760 NAYA	-0.6725
-3.6760 NAYAKTHTI	-0.5934
-3.6760 NAYAMPI	-0.6989
-3.5510 NAYANKIWA	-0.6726
-3.8521 NAYANKKITI	-0.4965
-3.6760 NAYARU	-0.6989
-3.6760 NAYATA	-0.6989
-3.8521 NAYATHWA	-0.4965
-3.5510 NAYAWA	-0.7780
-1.8586 NAYAXA	-2.3466
-3.0739 NAYRA	-1.0982
-3.8521 NAYRANAKAJAXA	-0.6989
-3.8521 NAYRANAKANIWA	-0.4965
-3.3080 NAYRAQATA	-0.9540
-3.6760 NAYRARUPUNIWA	-0.6989
-3.3080 NAYRIRI	-0.9539
-3.6760 NI	-0.6986
-3.1117 NINA	-1.0978
-3.5510 NUWALA	-0.7394
-3.3080 NUWAÑA	-0.8487
-3.6760 NÄNAKA	-0.6724
-2.0493 NÄNAKAXA	-2.1534
-3.5510 ORURO	-0.7778
-2.9770 PACHA	-1.2156
-3.8521 PACHANIKTHTI	-0.4965
-3.5510 PACHANKTANWA	-0.6726
-3.6760 PACHAXISA	-0.6714
-3.6760 PAKA	-0.5934
-3.6760 PALASKTAWA	-0.5934
-3.0070 PALLA	-1.1724
-3.5510 PALLANAKANA	-0.7780
-3.6760 PAMPA	-0.6711
-3.6760 PANICHATA	-0.6725
-3.3080 PANKA	-0.8944
-3.8521 PANTALUNAJAXA	-0.6020
-3.6760 PANTI	-0.6723
-3.8521 PAOLA	-0.6019
-3.0070 PAQALLQU	-1.2064
-3.0070 PAQALLQUNI	-1.1575
-3.5510 PAQALLQÜRI	-0.7394
-3.6760 PARA	-0.6721
-3.6760 PARIWANA	-0.6725
-3.6760 PARLAM	-0.6725
-3.8521 PARLAMTI	-0.5896
-3.8521 PARLAPKI	-0.4965
-3.8521 PARLAPKITI	-0.4965
-3.8521 PARLAPKTA	-0.4965
-3.8521 PARLAPKTAN	-0.4965
-3.8521 PARLAPKTANTI	-0.4965
-3.8521 PARLAPKTATI	-0.4965
-3.8521 PARLAPKTHA	-0.4965
-3.8521 PARLAPKTHTI	-0.4965
-3.6760 PARLAPXAM	-0.6725
-3.6760 PARLAPXAMTI	-0.6688
-3.8521 PARLASKAPXATANWA	-0.4965
-3.8521 PARLASKAPXITI	-0.4965
-3.5510 PARLASKAPXIWA	-0.6726
-3.8521 PARLASKAPXTANTI	-0.4965
-3.8521 PARLASKAPXTANWA	-0.4965
-3.8521 PARLASKAPXTATI	-0.4965
-3.5510 PARLASKAPXTAWA	-0.6726
-3.8521 PARLASKAPXTHTI	-0.4965
-3.4541 PARLASKAPXTHWA	-0.7396
-3.8521 PARLASKITI	-0.4965
-3.5510 PARLASKIWA	-0.6726
-4.1531 PARLASKTANTI	-0.3716
-3.1531 PARLASKTANWA	-0.9736
-3.8521 PARLASKTATI	-0.4965
-3.8521 PARLASKTAWA	-0.4965
-3.8521 PARLASKTHTI	-0.4965
-3.4541 PARLASKTHWA	-0.7396
-3.6760 PARLATA	-0.6725
-3.8521 PARLAÑA	-0.5934
-3.6760 PARLISTATI	-0.5934
-3.8521 PARLKI	-0.4965
-3.8521 PARLKITI	-0.4965
-3.8521 PARLKTA	-0.4965
-3.8521 PARLKTAN	-0.4965
-3.8521 PARLKTANTI	-0.4965
-3.8521 PARLKTATI	-0.4965
-3.8521 PARLKTHA	-0.4965
-3.8521 PARLKTHTI	-0.4965
-3.8521 PASTILLANAKA	-0.6020
-3.8521 PATA	-0.5934
-3.1531 PATAKA	-1.0965
-3.1117 PAYA	-1.1463
-2.8309 PAYANI	-1.3098
-3.3749 PAYÏRI	-0.8940
-2.2839 PAZ	-2.0309
-3.8521 PELICULANAKA	-0.6989
-3.6760 PHARJITU	-0.5934
-3.1531 PHAXSI	-1.1434
-3.5510 PHAXSÜRU	-0.7391
-4.1531 PHAYAÑA	-0.3716
-3.5510 PHAYIRI	-0.7394
-3.6760 PHAYIRINAKAXA	-0.6989
-3.3749 PHICHHU	-0.8942
-4.1531 PHICHU	-0.4770
-3.3749 PHISI	-0.8484
-3.8521 PHISINIKTHTI	-0.4965
-3.8521 PHISINITATI	-0.4965
-3.8521 PHISINITHWA	-0.4965
-3.8521 PHISKHUÑA	-0.5933
-3.6760 PHISQA	-0.6721
-3.4541 PHISQANI	-0.7950
-3.0391 PHISQHA	-1.2928
-3.1117 PHISQHANI	-1.0376
-3.6760 PHISQÏRI	-0.6725
-3.6760 PHUCHHA	-0.6724
-4.1531 PHUQHAÑA	-0.3716
-3.8521 PICHAÑA	-0.5934
-3.6760 PICHIRI	-0.5934
-3.6760 PILPINTU	-0.6725
-3.5510 PIPUKANAKA	-0.7780
-3.6760 PIPUKANAKAXA	-0.5934
-3.8521 PIRAI	-0.6020
-3.4541 PIRQA	-0.8447
-3.5510 PIRWA	-0.6726
-3.3749 PISINARU	-0.9998
-3.6760 PISINARUWA	-0.6986
-3.8521 PITAÑA	-0.5934
-3.8521 PIÑA	-0.6019
-3.4541 PLAY	-0.8449
-3.8521 PULIRAMAXA	-0.6020
-3.6760 PURAKA	-0.6725
-3.5510 PURAKAJAWA	-0.8449
-3.8521 PURITU	-0.4965
-2.8743 PUSI	-1.3310
-2.9490 PUSINI	-1.2208
-3.6760 PUSÏRI	-0.6725
-2.3335 PÄ	-1.8720
-3.3080 P’AKIÑA	-0.9540
-3.6760 P’AP’I	-0.6724
-3.6760 P’ASP’ATA	-0.6724
-4.1531 P’ASP’ATAWA	-0.3716
-3.6760 P’AXLA	-0.6724
-3.6760 P’IQI	-0.6724
-3.8521 P’IQIJARAKIWA	-0.6019
-3.6760 P’ISAQA	-0.6725
-3.3749 P’ISQI	-0.9721
-3.5510 P’ITIRI	-0.6726
-3.3080 P’UNKHINTAÑA	-0.9540
-3.4541 P’UTUXSI	-0.7973
-3.6760 QALA	-0.6988
-3.3080 QALLTA	-0.8943
-3.8521 QALLTANXA	-0.6019
-3.8521 QALLTAÑA	-0.5934
-3.5510 QAMAQI	-0.7394
-3.5510 QAMASTHA	-0.7390
-3.8521 QAMAÑA	-0.5934
-3.8521 QAMI	-0.6020
-3.2500 QAMTHA	-0.8945
-3.8521 QARITAPXTANWA	-0.4965
-3.8521 QARIÑA	-0.5934
-3.6760 QARWA	-0.6725
-3.6760 QASAWI	-0.6725
-2.9770 QAWQHA	-1.2150
-3.4541 QAWQHASA	-0.9029
-3.6760 QAWRA	-0.6725
-3.6760 QAÑAWA	-0.6725
-3.6760 QHANANCHKITI	-0.5934
-4.1531 QHANTATIÑA	-0.4771
-3.6760 QHARÜRKAMA	-0.6725
-3.5510 QHARÜRU	-0.7394
-3.8521 QHATHITA	-0.6020
-3.8521 QHIPA	-0.5934
-3.3080 QHIPÄXA	-0.8487
-3.3080 QHIWIKIPAÑA	-0.9540
-3.6760 QHUCHA	-0.6989
-3.5510 QHULU	-0.7395
-4.1531 QHUMAÑA	-0.4767
-3.5510 QHURU	-0.7392
-3.5510 QHURUKUTA	-0.7394
-3.6760 QHURUWA	-0.5934
-3.6760 QILLQAM	-0.6725
-3.5510 QILLQAMTI	-0.7358
-3.6760 QILLQAPXAM	-0.6725
-3.5510 QILLQAPXAMTI	-0.7358
-3.5510 QILLQATARUSA	-0.7780
-3.0391 QILLQAÑA	-1.1246
-3.8521 QILLQAÑAJAWA	-0.4965
-3.6760 QILLQIRI	-0.6723
-3.8521 QINAYA	-0.4965
-3.5510 QULLAÑA	-0.7973
-3.2500 QULLIRI	-0.9729
-3.2500 QULLQI	-1.0409
-3.8521 QULLQINIKTHTI	-0.4965
-3.6760 QUNQURI	-0.6725
-3.5510 QUNT’AM	-0.6726
-3.6760 QUNT’AMTI	-0.6688
-3.6760 QUNT’APXAM	-0.6725
-3.6760 QUNT’APXAMTI	-0.6688
-3.5510 QUNUÑA	-0.7394
-3.8521 QUQA	-0.4965
-3.3080 QUÑA	-0.8487
-3.4541 Q’APHA	-0.7973
-3.5510 Q’AWACHIRA	-0.7358
-3.6760 Q’AYMA	-0.6725
-3.8521 Q’AYMAKTHA	-0.4965
-4.1531 Q’AYMAKTHTI	-0.3716
-3.8521 Q’AYMAPKTHA	-0.4965
-4.1531 Q’AYMAPKTHTI	-0.3716
-3.6760 Q’AÑU	-0.6725
-3.8521 Q’AÑUWA	-0.4965
-3.0739 Q’ILLU	-1.0984
-3.6760 Q’ILLUMPI	-0.6989
-3.6760 Q’IWIRI	-0.6725
-3.6760 Q’IWSA	-0.6721
-3.0739 Q’IXU	-1.1238
-3.5510 Q’IXUWA	-0.7394
-3.6760 Q’UMA	-0.6718
-3.8521 RIXI	-0.5929
-3.8521 RODRIGUEZ	-0.6019
-3.5510 SAJUNA	-0.7391
-3.3080 SAK’AÑA	-0.9540
-4.1531 SALAR	-0.4771
-3.8521 SAMARAWIMANA	-0.6019
-3.5510 SAMI	-0.7967
-3.8521 SAMKASIÑA	-0.5934
-3.8521 SAMSUÑA	-0.5930
-3.8521 SAMTI	-0.6020
-3.8521 SAN	-0.6020
-3.3080 SANKAÑA	-0.9540
-3.3080 SANTA	-0.9998
-3.4541 SAPA	-0.8480
-3.5510 SAPAKISKIWA	-0.6726
-3.6760 SAPAKISKTHWA	-0.5934
-3.6760 SARAM	-0.6725
-3.6760 SARAMTI	-0.6688
-3.8521 SARAPKI	-0.4965
-3.8521 SARAPKITI	-0.4965
-3.8521 SARAPKTA	-0.4965
-3.8521 SARAPKTAN	-0.4965
-3.8521 SARAPKTANTI	-0.4965
-3.8521 SARAPKTATI	-0.4965
-3.8521 SARAPKTHA	-0.4965
-3.8521 SARAPKTHTI	-0.4965
-3.6760 SARAPXAM	-0.6725
-3.6760 SARAPXAMTI	-0.6688
-3.8521 SARAPXAÑAJAKI	-0.4965
-3.8521 SARAPXAÑAJAKITI	-0.4965
-3.8521 SARAPXAÑAJATI	-0.4965
-3.6760 SARAPXAÑAJAWA	-0.5934
-3.8521 SARAPXAÑAMAKI	-0.4965
-3.8521 SARAPXAÑAMAKITI	-0.4965
-3.8521 SARAPXAÑAMATI	-0.4965
-3.8521 SARAPXAÑAMAWA	-0.4965
-3.8521 SARAPXAÑAPAKI	-0.4965
-3.8521 SARAPXAÑAPAKITI	-0.4965
-3.8521 SARAPXAÑAPATI	-0.4965
-3.8521 SARAPXAÑAPAWA	-0.4965
-3.8521 SARAPXAÑASAKI	-0.4965
-3.8521 SARAPXAÑASAKITI	-0.4965
-3.8521 SARAPXAÑASATI	-0.4965
-3.8521 SARAPXAÑASAWA	-0.4965
-4.1531 SARAPXI	-0.3716
-3.8521 SARAPXITI	-0.4965
-4.1531 SARAPXTAN	-0.3716
-3.8521 SARAPXTANTI	-0.4965
-3.8521 SARAPXTATI	-0.4965
-3.8521 SARAPXTHA	-0.4965
-3.8521 SARAPXTHTI	-0.4965
-3.6760 SARASKTA	-0.5934
-4.1531 SARASKTHA	-0.3716
-3.1117 SARAÑA	-1.0704
-3.8521 SARAÑAJAKI	-0.4965
-3.8521 SARAÑAJAKITI	-0.4965
-3.8521 SARAÑAJATI	-0.4965
-3.8521 SARAÑAJAWA	-0.4965
-3.8521 SARAÑAMAKI	-0.4965
-3.8521 SARAÑAMAKITI	-0.4965
-3.8521 SARAÑAMATI	-0.4965
-3.8521 SARAÑAMAWA	-0.4965
-3.8521 SARAÑAPAKI	-0.4965
-3.8521 SARAÑAPAKITI	-0.4965
-3.8521 SARAÑAPATI	-0.4965
-3.8521 SARAÑAPAWA	-0.4965
-3.8521 SARAÑASAKI	-0.4965
-3.8521 SARAÑASAKITI	-0.4965
-3.8521 SARAÑASATI	-0.4965
-3.8521 SARAÑASAWA	-0.4965
-3.3749 SARAÑÄNI	-0.7976
-3.6760 SARI	-0.5934
-3.8521 SARITI	-0.4965
-3.8521 SARKI	-0.4965
-3.4541 SARKITI	-0.7396
-3.8521 SARKTA	-0.4965
-3.8521 SARKTAN	-0.4965
-3.8521 SARKTANTI	-0.4965
-3.8521 SARKTATI	-0.4965
-3.8521 SARKTHA	-0.4965
-3.8521 SARKTHTI	-0.4965
-3.8521 SARNAQAÑA	-0.5931
-3.3749 SARNAQTHA	-0.9537
-4.1531 SARTAN	-0.3716
-3.8521 SARTANTI	-0.4965
-3.6760 SARTASI	-0.6985
-3.6760 SARTASTHA	-0.6987
-3.8521 SARTATI	-0.4965
-3.0739 SARTHA	-1.0698
-3.8521 SARTHTI	-0.4965
-3.6760 SARXAÑAJAWA	-0.5934
-3.4541 SARXAÑÄNI	-0.9029
-3.1988 SATA	-1.0400
-3.8521 SATAKI	-0.4965
-3.8521 SATAKITI	-0.4965
-3.8521 SATAKTA	-0.4965
-3.8521 SATAKTHA	-0.4965
-3.8521 SATAPKITI	-0.4965
-3.8521 SATAPXITI	-0.4965
-3.8521 SATATI	-0.4965
-3.5510 SATAWA	-0.6726
-3.8521 SATÄKTAN	-0.4965
-3.8521 SATÄKTANTI	-0.4965
-3.8521 SATÄKTATI	-0.4965
-3.8521 SATÄKTHTI	-0.4965
-3.8521 SATÄPKI	-0.4965
-3.8521 SATÄPKTA	-0.4965
-3.8521 SATÄPKTAN	-0.4965
-3.8521 SATÄPKTANTI	-0.4965
-3.8521 SATÄPKTATI	-0.4965
-3.8521 SATÄPKTHA	-0.4965
-3.8521 SATÄPKTHTI	-0.4965
-3.8521 SATÄPXIWA	-0.4965
-3.8521 SATÄPXTANTI	-0.4965
-3.8521 SATÄPXTANWA	-0.4965
-3.8521 SATÄPXTATI	-0.4965
-3.8521 SATÄPXTAWA	-0.4965
-3.8521 SATÄPXTHTI	-0.4965
-3.8521 SATÄPXTHWA	-0.4965
-3.8521 SATÄTANTI	-0.4965
-3.8521 SATÄTANWA	-0.4965
-3.8521 SATÄTATI	-0.4965
-3.8521 SATÄTAWA	-0.4965
-3.8521 SATÄTHTI	-0.4965
-3.4541 SATÄTHWA	-0.7396
-3.6760 SAWURI	-0.6717
-3.5510 SAXTA	-0.7394
-3.8521 SAYA	-0.5815
-3.1988 SAYASAWA	-1.0403
-3.6760 SAYT’AM	-0.6725
-3.6760 SAYT’AMTI	-0.6688
-3.6760 SAYT’APXAM	-0.6725
-3.6760 SAYT’APXAMTI	-0.6688
-3.1988 SAYT’AÑA	-0.9736
-3.6760 SIKU	-0.5934
-3.8521 SIKUWA	-0.4965
-3.6760 SILLP’A	-0.6725
-3.6760 SILLU	-0.6725
-3.8521 SILLUNAKAMAXA	-0.6020
-3.5510 SILULARAJAWA	-0.7780
-3.6760 SILULARAMANA	-0.6989
-3.3080 SINK’UÑA	-0.8487
-3.6760 SINTI	-0.6723
-3.6760 SIRIPITA	-0.6725
-3.6760 SIWARA	-0.6723
-3.5510 SIWIQ’ARA	-0.7394
-3.6760 SIWULLA	-0.5934
-4.1531 SOLARUWA	-0.4768
-3.1988 SOPOCACHINA	-1.1756
-3.4541 STATION	-0.9540
-3.6760 SULLKÄPXTHWA	-0.6989
-3.0070 SUMA	-1.1728
-3.6760 SUMANWA	-0.5934
-3.5510 SUMAWA	-0.7780
-3.6760 SUNKHA	-0.6725
-3.6760 SURI	-0.6725
-3.8521 SUSTJASIÑA	-0.5934
-4.1531 SUSTJAÑA	-0.4771
-3.1988 SUTI	-0.9730
-3.6760 SUTIJAXA	-0.7781
-3.8521 SUTIKIWA	-0.4965
-3.8521 SUTIMAXA	-0.4965
-3.4541 SUTIPAXA	-0.7974
-3.6760 SUXA	-0.6725
-3.6760 SUXASKITI	-0.6725
-3.6760 SUXASKIWA	-0.6725
-3.0391 SUXTA	-1.2058
-3.0391 SUXTANI	-1.1340
-3.5510 SUXTÏRI	-0.7394
-3.8521 SUYAÑA	-0.5931
-3.8521 TAE	-0.6020
-3.1988 TAKIÑA	-1.0081
-3.6760 TAMURAYA	-0.6725
-3.3749 TANQA	-0.8941
-3.3749 TANSA	-0.8484
-3.4541 TAQI	-0.9029
-3.6760 TAQIKUNSA	-0.6989
-2.2958 TARIJA	-2.0228
-3.3749 TARIJARU	-0.9998
-4.1531 TARIJARUWA	-0.4771
-3.4541 TATA	-0.7972
-3.5510 TATANAKAJAXA	-0.8450
-3.3080 TAWAQU	-0.8943
-3.6760 TAWAQUNAKAXA	-0.6987
-3.2500 TAYKA	-0.9733
-3.8521 TAYKAPAXA	-0.6020
-3.5510 TAYKCH’I	-0.7392
-3.6760 TAYPI	-0.6987
-3.5510 TELEFERICOTA	-0.7780
-4.1531 TELEVISION	-0.4770
-3.8521 TERESANA	-0.6020
-3.6760 THANTHA	-0.6725
-3.8521 THANTHAWA	-0.4965
-3.6760 THAYA	-0.6721
-3.5510 THAYAPUNIWA	-0.6726
-3.6760 THAYASKITI	-0.6725
-3.6760 THAYASKIWA	-0.6721
-3.8521 THAYATI	-0.4965
-3.6760 THAYAWA	-0.6725
-3.6760 THIXNI	-0.6725
-3.3080 THUNKUÑA	-0.8487
-3.5510 THUQHURI	-0.7389
-3.8521 THUQHUÑA	-0.4965
-3.3080 THUQTAÑA	-0.9540
-3.3749 THURU	-0.8942
-3.8521 THURUWA	-0.4965
-3.5510 THUSKHA	-0.7394
-3.6760 THUTHA	-0.5934
-3.8521 THÄ	-0.6020
-3.8521 TINTONA	-0.6985
-3.6760 TITI	-0.6725
-3.4541 TIWANA	-0.7972
-3.6760 TIWULA	-0.6725
-3.8521 TUKUYA	-0.6020
-3.8521 TUKUÑA	-0.5934
-3.8521 TUKUÑAJAWA	-0.4965
-3.6760 TULLQA	-0.6724
-1.7482 TUNKA	-2.3218
-3.5510 TUNKÏRI	-0.6726
-3.6760 TUNQU	-0.6725
-3.6760 TUNTA	-0.6725
-3.3080 TUPAÑA	-0.9540
-3.8521 TUQIPXITUWA	-0.4965
-3.8521 TUQISISAKIWA	-0.6020
-3.8521 TUQIÑA	-0.5934
-3.6760 TUTUKA	-0.6725
-3.6760 TUTUKATI	-0.6626
-3.6760 TUTUKAWA	-0.6626
-3.3749 TUXU	-0.8936
-4.1531 TUYUÑA	-0.4770
-3.8521 T’AMANT’ATA	-0.5934
-2.7914 T’ANT’A	-1.4376
-3.1988 T’AQA	-1.0399
-3.6760 T’AQAWA	-0.5934
-3.6760 T’AXSURI	-0.6725
-3.8521 T’IJU	-0.5934
-3.1988 T’IJUÑA	-1.0080
-3.6760 T’IMPHU	-0.6725
-3.6760 T’USU	-0.6725
-3.6760 UKA	-0.6725
-3.6760 UKAMPIRUSA	-0.6988
-3.6760 UKANAKA	-0.6725
-3.8521 UKATA	-0.6989
-3.8521 UKAXA	-0.5927
-3.8521 UKHAMARAKI	-0.4965
-3.8521 UKHAMAXA	-0.6016
-3.6760 UKJA	-0.5934
-3.6760 ULLAM	-0.5934
-3.6760 ULLAMTI	-0.6688
-3.6760 ULLAPXAM	-0.6725
-3.5510 ULLAPXAMTI	-0.7358
-3.4541 ULLAÑA	-0.8474
-3.6760 ULLUKU	-0.6725
-3.2500 UMA	-1.0392
-4.1531 UMAM	-0.3716
-3.5510 UMAMPI	-0.8448
-4.1531 UMANAKAXA	-0.4693
-3.6760 UMATA	-0.6989
-2.8978 UMAÑA	-1.3561
-3.6760 UMAÑAMAWA	-0.5934
-3.8521 UMAÑATAKI	-0.6018
-3.6760 UNCH’UKIÑA	-0.7386
-3.5510 UQI	-0.7394
-3.8521 URA	-0.6018
-3.8521 URASA	-0.4965
-3.6760 URASAMANA	-0.5934
-3.1988 URASATI	-1.0268
-3.0391 URASAWA	-1.1360
-3.6760 URPI	-0.6723
-3.6760 URPU	-0.6720
-3.6760 URPUWA	-0.6725
-2.5620 URU	-1.5988
-3.8521 URUKIPANA	-0.4965
-3.8521 URUNA	-0.6019
-3.1988 URURI	-1.1112
-3.6760 URURÜRU	-0.6720
-3.3749 URUSA	-0.7976
-2.7729 URUTI	-1.4223
-2.7551 URUWA	-1.4349
-3.6760 USTAMA	-0.5934
-3.8521 USUCHAÑA	-0.5934
-3.8521 USUNTAÑA	-0.5934
-3.8521 USUTA	-0.5934
-3.4541 USUTHU	-0.7396
-4.1531 USUTU	-0.3716
-2.9490 UTA	-1.2161
-3.6760 UTACHIRI	-0.5934
-4.1531 UTAJAR	-0.4769
-4.1531 UTAJARUWA	-0.4769
-3.5510 UTAJAXA	-0.8449
-3.8521 UTAMA	-0.6020
-3.5510 UTAMAXA	-0.8450
-3.3749 UTANA	-0.9535
-3.6760 UTARU	-0.6988
-4.1531 UTARUWA	-0.4769
-3.8521 UTASAWA	-0.4965
-3.6760 UTHURUNKU	-0.6725
-3.8521 UTJAPKTA	-0.4965
-3.8521 UTJAPKTATI	-0.4965
-3.8521 UTJAPKTHA	-0.4965
-3.8521 UTJAPKTHTI	-0.4965
-3.8521 UTJAPXTATI	-0.4965
-3.8521 UTJAPXTAWA	-0.4965
-3.8521 UTJAPXTHTI	-0.4965
-3.8521 UTJAPXTHWA	-0.4965
-3.8521 UTJAÑA	-0.5933
-3.3080 UTJI	-0.8487
-3.1531 UTJITI	-0.9736
-3.4541 UTJIWA	-0.7396
-3.8521 UTJKTA	-0.4965
-3.8521 UTJKTATI	-0.4965
-3.8521 UTJKTHA	-0.4965
-3.8521 UTJKTHTI	-0.4965
-4.1531 UTJTANWA	-0.3716
-3.8521 UTJTATI	-0.4965
-3.8521 UTJTAWA	-0.4965
-3.8521 UTJTHTI	-0.4965
-3.8521 UTJTHWA	-0.4965
-4.1531 UYUNIRUWA	-0.4768
-3.5510 UÑCH’UKIM	-0.7394
-3.6760 UÑCH’UKIPXAM	-0.5934
-4.1531 UÑCH’UKIÑÄNITI	-0.3716
-4.1531 UÑCH’UKKAÑÄNITI	-0.3716
-3.6760 UÑISIÑA	-0.6725
-3.5510 UÑISKHUCHHI	-0.7394
-3.8521 UÑJASITAWA	-0.4965
-3.3749 UÑJIRI	-0.8931
-3.8521 UÑJKTHTI	-0.4965
-3.8521 UÑT’ATAWA	-0.4965
-3.8521 UÑT’AÑA	-0.5934
-2.3469 VARGAS	-1.9847
-4.1531 VILLA	-0.4771
-3.8521 VINO	-0.6020
-3.6760 WAJCHA	-0.6723
-3.6760 WAKA	-0.6725
-3.8521 WAKICHAWI	-0.5933
-2.7914 WALI	-1.5044
-3.0391 WALIKI	-1.1891
-3.6760 WALIKIRAKI	-0.5934
-3.6760 WALIKISKTATI	-0.5934
-3.8521 WALIKITI	-0.4965
-3.8521 WALIKTHTI	-0.4965
-3.3080 WALJA	-0.9731
-3.6760 WALLAQI	-0.6725
-3.6760 WALLPA	-0.5934
-3.6760 WALÜRU	-0.6725
-3.6760 WANAKU	-0.6725
-3.6760 WANK’U	-0.6721
-3.5510 WAQ’AQIÑA	-0.7387
-3.3749 WARANQA	-0.8387
-3.0391 WARI	-1.1696
-3.1531 WARMI	-1.0081
-3.8521 WARURT’IRIRAKIWA	-0.6020
-3.6760 WARÜRU	-0.6721
-3.6760 WASÜRU	-0.6725
-3.6760 WATSAPEYAÑÄNIWA	-0.5934
-3.1988 WAWA	-1.0402
-3.8521 WAWAPAXA	-0.5991
-3.5510 WAXT’AMA	-0.7776
-3.6760 WAYK’A	-0.6725
-2.8978 WAYNA	-1.2554
-3.6760 WAYNANAKAXA	-0.6987
-3.6760 WAYRUNQ’U	-0.6724
-3.6760 WAÑA	-0.6725
-3.4541 WIKUÑA	-0.7974
-3.0391 WILA	-1.1246
-3.6760 WILAMASIJAMPIWA	-0.6987
-3.6760 WILAMPI	-0.6989
-3.6760 WILLJTA	-0.6719
-3.0391 WILLKA	-1.2525
-3.6760 WILLKÜRU	-0.6722
-3.6760 WINTU	-0.6725
-3.6760 WIPHALAXA	-0.6989
-3.5510 WISK’ACHA	-0.7394
-3.2500 YAKA	-0.9355
-3.8521 YANAPAÑA	-0.5934
-3.8521 YANAPI	-0.4965
-3.6760 YANAPIRI	-0.6725
-3.6760 YAPT’ITAYA	-0.6725
-3.6760 YAPU	-0.6725
-3.6760 YAPUCHIRI	-0.6724
-3.8521 YATICHAÑA	-0.5933
-4.1531 YATICHI	-0.3716
-3.3749 YATICHIRI	-0.8483
-3.8521 YATICHIRIWA	-0.4965
-3.3749 YATICHIRIXA	-0.9537
-3.6760 YATICHÄTAMA	-0.5934
-4.1531 YATIQAPXAÑAMAWA	-0.3716
-4.1531 YATIQAPXAÑAPAWA	-0.3716
-4.1531 YATIQAPXAÑASAWA	-0.3716
-3.6760 YATIQAPXTHWA	-0.6989
-3.8521 YATIQASKIWA	-0.4965
-3.8521 YATIQASKTWA	-0.6014
-3.6760 YATIQAWINIKTHTI	-0.5934
-3.8521 YATIQAWISA	-0.6020
-3.5510 YATIQAÑA	-0.7974
-3.3749 YATIQAÑAJAWA	-0.7976
-4.1531 YATIQAÑAMAWA	-0.3716
-4.1531 YATIQAÑAPAWA	-0.3716
-3.8521 YATIQAÑAPUNIWA	-0.4965
-3.8521 YATIQI	-0.4965
-3.1531 YATIQIRI	-1.0397
-3.8521 YATIQIRITHWA	-0.4965
-4.1531 YATIQKITI	-0.3716
-3.6760 YATIQTA	-0.5934
-3.8521 YATIQTHA	-0.4965
-3.8521 YATIYAWINAKA	-0.5933
-3.3749 YATIÑA	-0.9537
-3.3749 YATKTHTI	-0.7976
-3.6760 YUQA	-0.6725
-3.6760 YURIRITHWA	-0.6989
-3.8521 YURIÑA	-0.5934
-3.3080 YUSPAJARA	-0.9356
-3.4541 YUXCH’A	-0.7974
-3.8521 YÄNAKA	-0.5932
-3.6760 YÄQIRIXA	-0.6989
-3.8521 ÑAK’UTA	-0.5933
-3.6760 ÑIK’UTA	-0.6725
-4.1531 ÑIK’UTANAKANIWA	-0.3716
-3.8521 ÑIK’UTANAKAPAXA	-0.6988
-4.1531 ÑIK’UTANIWA	-0.3716
-3.6760 ÑIK’UTANÏTHWA	-0.6989
-3.8521 ÑIK’UTAWA	-0.4965
-3.8521 ÑUSATA	-0.4965
-3.6760 ÑUXU	-0.6723

\2-grams:
-0.0001 </s> <s> 0.0865
-3.0966 <s> ACHACHI 0.2218
-3.0966 <s> ACHACHILA 0.3010
-3.0966 <s> ACHAKU 0.3010
-3.2727 <s> ACHUQA -0.1249
-2.9716 <s> AJANU -0.2499
-2.7955 <s> AKA 0.1761
-3.0966 <s> AKANA 0.3010
-3.0966 <s> AKANAKA 0.3010
-2.8747 <s> AKAXA -0.3010
-3.0966 <s> AKJA 0.3010
-2.9716 <s> ALALAWA 0.0969
-3.0966 <s> ALASITAYA 0.3680
-2.6706 <s> ALAXA 0.0512
-2.5737 <s> ALAYA 0.1461
-2.5737 <s> ALAÑA 0.1139
-2.9716 <s> ALIQATA 0.1761
-3.0966 <s> ALIRI 0.3010
-3.2727 <s> ALJAÑA -0.0792
-3.2727 <s> ALJIRI -0.1249
-3.0966 <s> ALLCHHI 0.3010
-2.9716 <s> ALLPACHU 0.1761
-3.2727 <s> ALPAQA -0.1249
-3.0966 <s> ALWA -0.3174
-3.0966 <s> AMARU 0.3010
-3.0966 <s> AMPARA -0.0792
-3.2727 <s> AMTAÑA -0.0792
-3.0966 <s> AMUKT’AM 0.2218
-3.0966 <s> AMUKT’APXAM 0.2218
-3.2727 <s> ANATA -0.1249
-3.2727 <s> ANATAÑA -0.1919
-3.2727 <s> ANATIRI -0.1413
-3.0966 <s> ANCHA 0.3010
-3.0966 <s> ANTI -0.1761
-2.9716 <s> ANU -0.2041
-3.0966 <s> ANUNITATI 0.1249
-3.2727 <s> APARAÑA -0.0792
-3.2727 <s> APILLA 0.0000
-3.2727 <s> ARKAÑA -0.0792
-3.2727 <s> ARMAÑA -0.0792
-3.2727 <s> ARNAQAÑA -0.0792
-3.0966 <s> ARSUM 0.3010
-3.2727 <s> ARSUPXAM 0.3979
-3.2727 <s> ARSUÑA -0.0792
-2.9716 <s> ARU 0.1761
-3.2727 <s> ARUMA -0.1984
-2.9716 <s> ARUMANTHI 0.1761
-3.2727 <s> ARUNTAÑA 0.3010
-2.9716 <s> ARXATIRI 0.1761
-3.0966 <s> ASIRU -0.1761
-2.7286 <s> ASKI -0.3332
-3.2727 <s> ASU 0.3979
-3.0966 <s> ATAMIRI 0.3010
-2.7955 <s> ATI -0.1015
-3.2727 <s> ATIPAÑA -0.0792
-3.2727 <s> ATÜRU 0.0000
-3.2727 <s> AWATIRI 0.0000
-3.0966 <s> AWICHA 0.3010
-2.9716 <s> AWILA 0.1761
-2.9716 <s> AWKCH’I 0.2430
-3.2727 <s> AWKI -0.1249
-2.8747 <s> AWTI 0.0792
-3.2727 <s> AWTJAÑA -0.0792
-3.2727 <s> AYCHA 0.0000
-3.2727 <s> AÑATHUYA 0.3979
-3.2727 <s> CHACHA 0.2109
-3.2727 <s> CHALLWA 0.3979
-3.2727 <s> CHARA 0.0000
-2.8747 <s> CHATIYAÑA 0.0792
-3.0966 <s> CHAYRU -0.1761
-3.2727 <s> CHHAQHAÑA -0.0792
-3.2727 <s> CHHICHHILLANKHA 0.0000
-3.2727 <s> CHHICHHIRANKHA -0.0792
-3.0966 <s> CHHIJCHHI -0.2341
-3.2727 <s> CHHIJCHHISKITI 0.3979
-3.0966 <s> CHHIJCHHISKIWA -0.2341
-3.2727 <s> CHHIJCHHIÑA -0.0792
-2.6194 <s> CHHIJLLAÑA -0.3174
-2.9716 <s> CHHIPU 0.3010
-2.9716 <s> CHHIQHANQARA 0.1761
-3.2727 <s> CHHIRI 0.3010
-3.0966 <s> CHHIWCHHI 0.3680
-2.4945 <s> CHIKA 0.3188
-3.2727 <s> CHIKATA 0.0000
-2.9716 <s> CHINUQA 0.1761
-2.7955 <s> CHUKI 0.1761
-2.6706 <s> CHUPIKA 0.0512
-3.2727 <s> CHURAÑA -0.0792
-3.0966 <s> CHURI -0.2341
-3.0966 <s> CH’AJA 0.2218
-2.5323 <s> CH’AKUÑA 0.1347
-3.2727 <s> CH’AMA -0.1249
-3.2727 <s> CH’AMUÑA 0.0000
-3.2727 <s> CH’APAQA -0.1249
-2.9716 <s> CH’APHAQA 0.1761
-3.2727 <s> CH’ARKHI -0.1249
-3.2727 <s> CH’ASKA -0.0792
-3.0966 <s> CH’AXWAKU 0.3010
-3.0966 <s> CH’IKHI -0.2553
-3.2727 <s> CH’IWI -0.1249
-3.2727 <s> CH’IWITI 0.3979
-3.2727 <s> CH’IWIWA -0.1249
-3.2727 <s> CH’IXI 0.0000
-2.6194 <s> CH’IYARA -0.2852
-3.0966 <s> CH’UKURI 0.4771
-2.6706 <s> CH’UMPHI -0.2041
-3.2727 <s> CH’UQI -0.1249
-2.8747 <s> CH’USA 0.1461
-3.0966 <s> CH’USPI 0.3010
-3.2727 <s> CH’UXÑA -0.1549
-2.9716 <s> CH’UÑU 0.1761
-3.0966 <s> COPACABANARUWA 0.1249
-3.2727 <s> ICHUMAMA -0.1249
-3.0966 <s> ICHUTATA 0.3010
-3.2727 <s> ICHUWAWA 0.0000
-3.0966 <s> IJMA 0.2218
-2.6706 <s> IKITATAÑA 0.0512
-3.0966 <s> IKIWA 0.1249
-3.2727 <s> IKIÑA -0.0792
-2.6194 <s> ILLAPA 0.3245
-3.2727 <s> ILLAPÜRU 0.3979
-3.2727 <s> IMANTAÑA -0.0792
-3.2727 <s> IMAÑA -0.0792
-3.0966 <s> INAMAYA 0.3010
-3.0966 <s> INTI 0.2218
-3.2727 <s> IPA -0.1249
-2.8747 <s> IPAJAXA 0.1461
-3.2727 <s> IPALA 0.0000
-3.0966 <s> IPI 0.3010
-3.2727 <s> IRAQT’ITAYA -0.1249
-3.2727 <s> IRNAQAWI -0.0792
-3.2727 <s> IRNAQAÑA 0.3010
-2.9716 <s> IRPIRI -0.1249
-2.7955 <s> ISI 0.1761
-3.2727 <s> ISLA 0.1761
-3.0966 <s> ISPILLU -0.2341
-3.2727 <s> ISPILLUNAKAMAXA 0.1761
-3.0966 <s> IST’AM -0.1761
-2.9716 <s> IST’APXAM 0.1761
-3.0966 <s> IST’AÑA 0.2218
-3.2727 <s> IWIJA 0.0000
-3.0966 <s> IWISA 0.3010
-3.0966 <s> IXWIRI 0.3680
-3.0966 <s> IYAWA 0.1249
-3.2727 <s> JACHAÑA -0.0792
-2.8747 <s> JACH’A 0.4150
-3.2727 <s> JAKAÑA -0.0792
-3.2727 <s> JAKHU 0.3979
-3.2727 <s> JAKHUÑA -0.0792
-3.2727 <s> JAK’A 0.0669
-3.2727 <s> JAK’ANA 0.1761
-3.2727 <s> JAK’U -0.1249
-3.0966 <s> JALJTATA -0.1761
-2.7955 <s> JALLU -0.2041
-3.2727 <s> JALLUSKITI -0.1249
-3.2727 <s> JALLUSKIWA -0.1249
-3.2727 <s> JALLUÑA -0.0792
-3.2727 <s> JAMP’ATIÑA -0.0792
-2.9716 <s> JAMP’ATU 0.1761
-3.2727 <s> JAMUQIRI 0.0000
-1.8661 <s> JANI -0.1957
-1.8333 <s> JANIWA -1.6474
-2.6706 <s> JANK’A 0.0512
-3.2727 <s> JANK’AKI 0.3358
-3.2727 <s> JANQ’U -0.1397
-3.2727 <s> JANQ’ULLA -0.1249
-2.6194 <s> JAQI -0.3802
-3.0966 <s> JAQICHATA -0.1761
-3.0966 <s> JARARANKHU -0.1761
-3.2727 <s> JARU 0.0000
-2.9716 <s> JASA 0.1761
-3.2727 <s> JAWSAÑA -0.0792
-3.2727 <s> JAXU 0.3010
-2.9716 <s> JAYA 0.2430
-3.0966 <s> JAYANA 0.1249
-3.0966 <s> JAYLLIRI 0.3010
-3.2727 <s> JAYLLIÑA -0.0792
-3.0966 <s> JAYP’U -0.3424
-3.0966 <s> JAYRA -0.1091
-2.9716 <s> JAYRASISKTAWA 0.0969
-3.2727 <s> JAYRASIÑA -0.0792
-2.9716 <s> JAYU 0.1761
-3.0966 <s> JICHHÜRU 0.2218
-3.2727 <s> JIKHANI 0.0000
-3.0966 <s> JIKISIÑKAMA 0.1249
-3.2727 <s> JILA -0.2041
-3.0966 <s> JILANAKANITATI 0.1249
-2.9716 <s> JILATAJAWA 0.0969
-3.2727 <s> JILAÑA -0.0792
-3.0966 <s> JINCHU -0.1091
-2.0823 <s> JISA 0.1319
-3.2727 <s> JISKT’AÑA -0.0792
-2.9716 <s> JISK’A -0.0902
-3.2727 <s> JIST’ANTAÑA 0.7404
-2.6706 <s> JIST’ARAÑA 0.0512
-2.2313 <s> JIWA 0.1200
-2.7955 <s> JIWAKI -0.4102
-2.8747 <s> JIWAKIWA 0.0792
-3.0966 <s> JIWASA 0.2218
-3.0966 <s> JIWASANAKA 0.2218
-1.5092 <s> JIWASANAKAXA 0.0909
-3.0966 <s> JIWASANKITI 0.1249
-2.8747 <s> JIWASANKIWA 0.0792
-1.4981 <s> JIWASAXA 0.0858
-3.0966 <s> JIWAÑA 0.2218
-2.9716 <s> JUKU 0.1761
-3.0966 <s> JUKUMARI -0.1761
-3.2727 <s> JUK’A 0.0000
-3.0966 <s> JUMA -0.1761
-2.8747 <s> JUMANAKA -0.2218
-1.4873 <s> JUMANAKAXA 0.0868
-2.9716 <s> JUMANKITI 0.0969
-3.0966 <s> JUMANKIWA 0.1249
-2.7955 <s> JUMASTI 0.5836
-1.4276 <s> JUMAXA 0.0944
-2.9716 <s> JUNT’U -0.3332
-3.2727 <s> JUNT’USKITI 0.0000
-3.2727 <s> JUNT’USKIWA -0.1249
-3.2727 <s> JUNT’UTI -0.1249
-3.0966 <s> JUNT’UWA 0.4260
-3.2727 <s> JUNT’ÜMA 0.3979
-3.0966 <s> JUPA -0.1761
-3.0966 <s> JUPANAKA -0.1761
-1.5018 <s> JUPANAKAXA 0.0895
-3.0966 <s> JUPANKITI 0.1249
-3.0966 <s> JUPANKIWA 0.1249
-1.3432 <s> JUPAXA -0.5082
-3.2727 <s> JUPHA -0.1249
-2.9716 <s> JUQ’ARA 0.1761
-3.0966 <s> JURPÜRU -0.1761
-3.0966 <s> JUTAM -0.1761
-3.0966 <s> JUTAPXAM 0.2218
-3.2727 <s> JUTAÑA -0.0792
-2.6706 <s> JUTIRI 0.0512
-3.0966 <s> JUYKHU -0.1761
-2.6706 <s> JUYPHI 0.1383
-3.0966 <s> KALLACHI 0.3010
-2.9716 <s> KAMISAKI 0.0969
-2.9716 <s> KATARI 0.1761
-2.3976 <s> KAWKI -0.4771
-2.7955 <s> KAWKINSA 0.1249
-3.0966 <s> KAWKIRI -0.1761
-2.9716 <s> KAWKIRUSA 0.0969
-3.0966 <s> KAYA 0.3010
-3.2727 <s> KAYU -0.1249
-3.0966 <s> KAYUJAXA 0.1249
-3.0966 <s> KHAKHA -0.1761
-3.2727 <s> KHAYA -0.1249
-3.0966 <s> KHAYANA -0.1091
-3.2727 <s> KHAYANAKA 0.0000
-3.0966 <s> KHAYASTI 0.1249
-3.0966 <s> KHAYAXA 0.1249
-2.8747 <s> KHITI -0.5099
-3.2727 <s> KHITIMPISA 0.1761
-3.0966 <s> KHITINKISA 0.1249
-3.0966 <s> KHITISA 0.1249
-3.0966 <s> KHUCHHI -0.1761
-3.0966 <s> KHULLU -0.1761
-3.2727 <s> KHUNU -0.1249
-2.9716 <s> KHUNUSKITI 0.1761
-3.2727 <s> KHUNUSKIWA -0.1249
-3.2727 <s> KHUNUÑA -0.0792
-3.2727 <s> KHURI 0.0000
-3.2727 <s> KHUYUÑA -0.0792
-2.6706 <s> KILLT’AÑA 0.0512
-1.9716 <s> KIMSA -0.8930
-2.7955 <s> KIMSAQALLQU 0.1761
-3.0966 <s> KIMSAQALLQÜRI 0.3680
-2.9716 <s> KIMSÏRI 0.2430
-3.2727 <s> KUKA 0.1761
-3.0966 <s> KULLAKA -0.1091
-2.9716 <s> KULLAKAJAMPI 0.0969
-3.0966 <s> KULLI -0.1761
-2.1935 <s> KUNA -0.7782
-3.0966 <s> KUNAMPISA 0.3010
-2.9716 <s> KUNAPACHA 0.1761
-2.0552 <s> KUNAS 0.0256
-2.1935 <s> KUNASA -1.1742
-2.8747 <s> KUNATA 0.0792
-3.0966 <s> KUNAWSA -0.1761
-2.7955 <s> KUNJAMA 0.2218
-3.0966 <s> KUNJAMASA 0.1249
-3.0966 <s> KUNKA -0.2341
-3.0966 <s> KUNKAPAXA 0.1249
-2.4276 <s> KUNSA -0.4058
-2.6706 <s> KUPI 0.0512
-2.7286 <s> KURMI 0.4771
-3.0966 <s> KURMIWA 0.3010
-3.2727 <s> KURMÜRU 0.3979
-3.2727 <s> KURURU -0.1249
-3.0966 <s> KUSA 0.1249
-3.0966 <s> KUSI -0.2553
-3.2727 <s> KUSISIÑA -0.0792
-3.2727 <s> KUTIYAÑA -0.0792
-2.5737 <s> K’ACHAKI 0.1461
-3.0966 <s> K’ALLA -0.1761
-3.2727 <s> K’ARA 0.0000
-2.7955 <s> K’ARI -0.2139
-3.2727 <s> K’ARISIÑA -0.0792
-3.0966 <s> K’AWNA -0.2341
-3.0966 <s> K’AYRA 0.2218
-3.0966 <s> K’ISA -0.2341
-3.0966 <s> K’ISIMIRA 0.2218
-3.0966 <s> K’ULLU 0.3010
-3.2727 <s> K’UMARA 0.3010
-2.6706 <s> K’UMT’AÑA 0.0512
-3.0966 <s> K’UMU 0.2218
-2.9716 <s> K’UTI 0.1761
-2.6706 <s> LAKA -0.3010
-2.9716 <s> LAPAKA -0.2041
-2.9716 <s> LAPHI 0.1761
-3.0966 <s> LAP’A -0.1761
-3.2727 <s> LAQUSI -0.1249
-2.9716 <s> LAQ’A 0.2430
-3.0966 <s> LAQ’U 0.2218
-3.0966 <s> LARAMA 0.3010
-2.7955 <s> LARI 0.2632
-3.0966 <s> LARIJAXA 0.1249
-2.9716 <s> LAXRA -0.0792
-3.0966 <s> LIQI -0.2218
-3.0966 <s> LIRQ’U -0.1761
-3.2727 <s> LLAJLLA 0.0000
-3.2727 <s> LLAKISIÑA -0.0792
-2.9716 <s> LLAMAYU 0.2430
-3.2727 <s> LLAMP’U 0.3979
-3.0966 <s> LLAWCH’A 0.3010
-3.0966 <s> LLAYTHA 0.3680
-3.2727 <s> LLUMPAQA 0.0000
-3.0966 <s> LLUNK’U 0.2218
-2.9716 <s> LLÄTUNKA 0.3010
-3.2727 <s> LLÄTUNKÏRI -0.1549
-3.0966 <s> LUK’ANA 0.0458
-2.9716 <s> LULI 0.1761
-3.0966 <s> LUNQHU 0.3010
-3.2727 <s> LUNTHATAÑA -0.0792
-3.0966 <s> LUPI 0.3010
-2.9716 <s> LUPISKITI 0.1761
-3.2727 <s> LUPISKIWA 0.0000
-3.2727 <s> LUP’IÑA 0.1761
-3.0966 <s> LURAM -0.1761
-3.0966 <s> LURAPXAM 0.2218
-2.9716 <s> LURAWINITHWA 0.0969
-3.0966 <s> LURAÑA -0.2218
-3.0966 <s> MACHAQA -0.2341
-2.6706 <s> MAKHATAÑA 0.0512
-3.0966 <s> MALENAMPI 0.1249
-3.2727 <s> MALLQ’A 0.0000
-3.2727 <s> MAMA -0.1249
-2.9716 <s> MAMAJAXA 0.0969
-3.0966 <s> MAMANI -0.1761
-3.0966 <s> MAMURAYA 0.3010
-3.2727 <s> MANQHA -0.0792
-2.9716 <s> MANQ’AM 0.1761
-3.0966 <s> MANQ’APXAM -0.1761
-3.0966 <s> MANQ’ATA 0.1249
-2.9716 <s> MANQ’AXA 0.0969
-3.2727 <s> MANQ’AÑA -0.2700
-2.9716 <s> MANQ’IRI 0.0969
-2.9716 <s> MANTAM 0.1761
-3.0966 <s> MANTAPXAM -0.1761
-3.2727 <s> MANTAÑA -0.0792
-2.6706 <s> MARA -0.5051
-3.0966 <s> MARKA -0.1761
-2.5737 <s> MASI -0.5229
-3.0966 <s> MASINAKAMASTI 0.1249
-2.9716 <s> MATEMATICAXA 0.0969
-3.0966 <s> MAYA -0.4025
-3.0966 <s> MAYAMPI 0.1249
-3.2727 <s> MAYIÑA -0.0792
-2.8747 <s> MAYÏRI 0.2553
-3.2727 <s> MEGA 0.1761
-3.2727 <s> MISK’I 0.0000
-3.0966 <s> MISTUM 0.2218
-2.9716 <s> MISTUPXAM 0.1761
-2.9716 <s> MISTUÑA -0.1761
-3.2727 <s> MUJLLI 0.3979
-2.8747 <s> MUNATA -0.2840
-2.9716 <s> MUNATANITATI 0.5441
-3.2727 <s> MUNATANITHWA 0.7782
-3.2727 <s> MUNAÑA -0.0792
-3.0966 <s> MUQU 0.2218
-2.9716 <s> MURTURIYA -0.2341
-2.8747 <s> MUSICAXA 0.0792
-3.0966 <s> MUSQ’A -0.2341
-2.9716 <s> MÄ -0.4393
-2.9716 <s> MÄKI -0.2341
-2.9716 <s> NASA 0.2430
-2.9716 <s> NAYA 0.1761
-3.0966 <s> NAYANKIWA 0.3010
-1.2949 <s> NAYAXA -0.7365
-2.6706 <s> NAYRA -0.3010
-3.0966 <s> NAYRANAKAJAXA 0.2218
-3.0966 <s> NI 0.2218
-2.7286 <s> NINA -0.4191
-3.0966 <s> NUWALA -0.2341
-2.9716 <s> NÄNAKA 0.1761
-1.4665 <s> NÄNAKAXA 0.0803
-3.0966 <s> PAKA 0.2218
-2.7955 <s> PALLA -0.6133
-3.0966 <s> PANICHATA -0.1761
-2.7955 <s> PANKA 0.2218
-3.0966 <s> PANTALUNAJAXA 0.1249
-3.0966 <s> PANTI 0.3010
-2.8747 <s> PAQALLQU -0.4907
-2.9716 <s> PAQALLQÜRI 0.2430
-3.2727 <s> PARA 0.0000
-2.9716 <s> PARIWANA 0.1761
-3.0966 <s> PARLAM 0.3010
-2.9716 <s> PARLAPXAM 0.1761
-3.0966 <s> PARLATA 0.3010
-3.2727 <s> PARLAÑA -0.0792
-3.2727 <s> PATA -0.0792
-2.8747 <s> PATAKA -0.1938
-3.0966 <s> PAYA -0.3979
-2.8747 <s> PAYÏRI -0.1761
-3.2727 <s> PELICULANAKA -0.0792
-2.7955 <s> PHAXSI 0.3680
-3.2727 <s> PHAXSÜRU -0.0580
-3.0966 <s> PHAYIRI -0.1091
-2.9716 <s> PHISI -0.2499
-3.0966 <s> PHISINITATI 0.1249
-3.0966 <s> PHISKHUÑA 0.2218
-3.0966 <s> PHISQA -0.1761
-3.2727 <s> PHISQHA -0.2304
-3.2727 <s> PHISQÏRI -0.1249
-3.0966 <s> PHUCHHA 0.3010
-3.0966 <s> PICHAÑA 0.2218
-3.0966 <s> PICHIRI 0.2218
-3.0966 <s> PILPINTU -0.1761
-2.8747 <s> PIPUKANAKA 0.0792
-2.8747 <s> PIRQA 0.1461
-3.2727 <s> PITAÑA -0.0792
-3.0966 <s> PIÑA 0.1249
-2.8747 <s> PLAY 0.1461
-3.0966 <s> PULIRAMAXA 0.1249
-3.2727 <s> PURAKA -0.1249
-3.0966 <s> PURAKAJAWA 0.3680
-2.6706 <s> PUSI -0.7112
-3.2727 <s> PUSÏRI -0.1249
-1.9402 <s> PÄ -0.6557
-2.6706 <s> P’AKIÑA 0.0512
-3.0966 <s> P’AP’I 0.3010
-3.0966 <s> P’ASP’ATA 0.3010
-3.0966 <s> P’AXLA 0.3010
-3.2727 <s> P’IQI -0.1249
-3.0966 <s> P’IQIJARAKIWA 0.1249
-3.0966 <s> P’ISAQA -0.1761
-2.9716 <s> P’ISQI -0.3680
-2.9716 <s> P’ITIRI 0.1761
-2.6706 <s> P’UNKHINTAÑA 0.0512
-2.7955 <s> P’UTUXSI 0.1249
-2.9716 <s> QALA 0.0969
-3.2727 <s> QALLTAÑA -0.0792
-3.2727 <s> QAMAQI -0.0580
-3.2727 <s> QAMAÑA -0.0792
-3.2727 <s> QARIÑA -0.0792
-2.9716 <s> QARWA 0.1761
-3.2727 <s> QASAWI 0.0000
-2.6706 <s> QAWQHA -0.5809
-2.7955 <s> QAWQHASA 0.1249
-3.2727 <s> QAWRA 0.0000
-3.0966 <s> QAÑAWA 0.3010
-2.9716 <s> QHARÜRKAMA 0.1761
-2.8747 <s> QHARÜRU 0.1461
-3.0966 <s> QHIPA 0.2218
-2.6706 <s> QHIWIKIPAÑA 0.0512
-3.0966 <s> QHUCHA 0.2218
-3.0966 <s> QHULU -0.1091
-3.0966 <s> QHURU -0.2341
-2.9716 <s> QHURUKUTA -0.2341
-3.0966 <s> QILLQAM -0.1761
-3.0966 <s> QILLQAPXAM -0.1761
-2.8747 <s> QILLQAÑA 0.0544
-3.0966 <s> QILLQIRI -0.1761
-3.2727 <s> QINAYA 0.3010
-3.2727 <s> QULLAÑA -0.1761
-3.0966 <s> QULLIRI 0.0000
-2.8747 <s> QULLQI -0.3565
-3.0966 <s> QUNQURI 0.3010
-3.0966 <s> QUNT’AM 0.3010
-2.9716 <s> QUNT’APXAM 0.1761
-2.9716 <s> QUNUÑA -0.2341
-3.2727 <s> QUQA 0.3010
-2.8747 <s> Q’APHA 0.2041
-2.8747 <s> Q’AWACHIRA 0.1461
-3.0966 <s> Q’AYMA 0.3010
-3.0966 <s> Q’AÑU 0.3010
-3.0966 <s> Q’ILLU 0.1249
-2.9716 <s> Q’IWIRI 0.1761
-3.2727 <s> Q’IWSA 0.0000
-2.7286 <s> Q’IXU -0.4597
-3.2727 <s> Q’UMA -0.1249
-3.0966 <s> RIXI 0.2218
-3.0966 <s> SAJUNA 0.3680
-3.0966 <s> SAMI -0.0512
-3.0966 <s> SAMKASIÑA 0.2218
-3.2727 <s> SAMSUÑA -0.0792
-2.6706 <s> SANKAÑA 0.0512
-2.9716 <s> SAPA -0.2499
-2.9716 <s> SAPAKISKTHWA 0.0969
-3.0966 <s> SARAM -0.1761
-3.0966 <s> SARAPXAM -0.1761
-3.2727 <s> SARAÑA 0.0969
-3.2727 <s> SARNAQAÑA -0.0792
-2.9716 <s> SARXAÑAJAWA 0.0969
-2.7955 <s> SARXAÑÄNI 0.1249
-2.7955 <s> SATA -0.4102
-3.0966 <s> SAWURI -0.1761
-3.0966 <s> SAXTA -0.1091
-3.2727 <s> SAYA -0.0792
-2.9716 <s> SAYT’AM 0.1761
-3.0966 <s> SAYT’APXAM -0.1761
-3.2727 <s> SAYT’AÑA 0.3010
-3.2727 <s> SIKU 0.3979
-3.2727 <s> SILLP’A 0.0000
-3.0966 <s> SILLU 0.3010
-3.0966 <s> SILLUNAKAMAXA 0.1249
-2.8747 <s> SILULARAJAWA 0.0792
-3.2727 <s> SINTI -0.1249
-3.0966 <s> SIRIPITA -0.1761
-3.2727 <s> SIWARA -0.1249
-2.9716 <s> SIWIQ’ARA 0.2430
-3.2727 <s> SIWULLA 0.3979
-3.0966 <s> SUMA -0.2398
-3.0966 <s> SUNKHA 0.3010
-3.0966 <s> SURI 0.3010
-3.2727 <s> SUSTJASIÑA -0.0792
-2.7286 <s> SUTI 0.2341
-2.9716 <s> SUTIJAXA 0.1761
-2.9716 <s> SUTIPAXA -0.3010
-3.2727 <s> SUXA 0.0000
-2.9716 <s> SUXASKITI 0.1761
-3.2727 <s> SUXASKIWA 0.0000
-2.9716 <s> SUXTA -0.4559
-3.0966 <s> SUXTÏRI -0.1091
-3.2727 <s> SUYAÑA -0.0792
-3.2727 <s> TAKIÑA -0.2285
-3.0966 <s> TAMURAYA 0.3010
-3.0966 <s> TANQA -0.2553
-3.0966 <s> TAQI -0.2730
-3.2727 <s> TATA 0.1249
-2.8747 <s> TATANAKAJAXA 0.1461
-3.0966 <s> TAWAQU 0.0458
-3.0966 <s> TAYKA -0.2430
-3.2727 <s> TAYKCH’I -0.0580
-3.2727 <s> TAYPI 0.3979
-3.2727 <s> TELEFERICOTA 0.4771
-3.2727 <s> TELEVISION 0.1761
-3.0966 <s> THANTHA 0.3010
-3.2727 <s> THAYA 0.0000
-3.0966 <s> THAYASKITI 0.3010
-3.2727 <s> THAYASKIWA 0.0000
-3.2727 <s> THAYATI 0.3010
-3.2727 <s> THAYAWA -0.1249
-3.2727 <s> THIXNI -0.1249
-2.9716 <s> THUQHURI 0.2430
-3.2727 <s> THUQHUÑA 0.3010
-2.6706 <s> THUQTAÑA 0.0512
-3.2727 <s> THURU -0.2041
-2.8747 <s> THUSKHA 0.1461
-3.0966 <s> THUTHA 0.2218
-3.0966 <s> THÄ 0.1249
-3.2727 <s> TITI -0.1249
-3.0966 <s> TIWANA -0.0512
-3.2727 <s> TIWULA 0.0000
-3.2727 <s> TUKUÑA -0.0792
-3.0966 <s> TUKUÑAJAWA 0.1249
-3.0966 <s> TULLQA 0.3010
-1.9016 <s> TUNKA -1.2384
-3.2727 <s> TUNKÏRI 0.4771
-3.0966 <s> TUNQU 0.3010
-3.2727 <s> TUNTA -0.1249
-2.6706 <s> TUPAÑA 0.0512
-3.2727 <s> TUQIÑA -0.0792
-3.0966 <s> TUTUKA 0.3010
-3.2727 <s> TUTUKATI 0.0000
-3.0966 <s> TUTUKAWA 0.3010
-2.9716 <s> TUXU -0.0792
-3.2727 <s> T’AMANT’ATA -0.0792
-2.8747 <s> T’ANT’A -0.6021
-3.2727 <s> T’IJU -0.0792
-2.5737 <s> T’IJUÑA 0.1139
-3.2727 <s> T’IMPHU -0.1249
-3.2727 <s> T’USU -0.1249
-3.2727 <s> UKA -0.1249
-3.0966 <s> UKAMPIRUSA 0.2218
-3.2727 <s> UKANAKA -0.1249
-3.0966 <s> UKAXA 0.1249
-3.0966 <s> UKHAMAXA 0.1249
-3.2727 <s> UKJA 0.3979
-3.0966 <s> ULLAM 0.2218
-2.9716 <s> ULLAPXAM 0.1761
-2.9716 <s> ULLAÑA -0.1249
-3.0966 <s> ULLUKU 0.3010
-3.2727 <s> UMA -0.2341
-3.2727 <s> UMANAKAXA 0.1761
-2.9716 <s> UMATA 0.0969
-3.2727 <s> UMAÑA -0.2700
-3.2727 <s> UNCH’UKIÑA -0.1549
-3.0966 <s> UQI 0.3680
-3.0966 <s> URA 0.1249
-3.2727 <s> URPI -0.1249
-3.2727 <s> URPU 0.0000
-3.2727 <s> URPUWA 0.0000
-2.7286 <s> URU -0.5355
-2.7955 <s> URURI 0.3358
-3.2727 <s> URURÜRU -0.1249
-3.2727 <s> USUCHAÑA -0.0792
-3.2727 <s> USUNTAÑA -0.0792
-3.2727 <s> USUTA -0.0792
-2.7955 <s> UTA 0.0669
-3.0966 <s> UTACHIRI 0.2218
-2.8747 <s> UTAJAXA 0.1461
-2.8747 <s> UTAMAXA 0.1461
-3.2727 <s> UTHURUNKU 0.0000
-3.2727 <s> UTJAÑA -0.0792
-2.9716 <s> UÑCH’UKIM 0.2430
-3.0966 <s> UÑCH’UKIPXAM 0.2218
-3.0966 <s> UÑISIÑA 0.3010
-2.9716 <s> UÑISKHUCHHI 0.2430
-3.0966 <s> UÑJASITAWA 0.1249
-3.2727 <s> UÑT’AÑA -0.0792
-3.2727 <s> WAJCHA -0.1249
-3.0966 <s> WAKA -0.1761
-3.0966 <s> WAKICHAWI 0.2218
-2.4276 <s> WALI -0.7871
-2.5323 <s> WALIKI -0.2175
-2.9716 <s> WALIKIRAKI 0.0969
-2.7955 <s> WALJA -0.3010
-2.9716 <s> WALLAQI 0.1761
-3.0966 <s> WALLPA 0.2218
-3.0966 <s> WALÜRU -0.1761
-3.2727 <s> WANAKU 0.0000
-2.9716 <s> WANK’U 0.1761
-2.9716 <s> WAQ’AQIÑA 0.2430
-3.2727 <s> WARANQA 0.1761
-2.6706 <s> WARI 0.3757
-3.2727 <s> WARMI 0.3358
-3.2727 <s> WARÜRU -0.1249
-3.0966 <s> WASÜRU -0.1761
-2.9716 <s> WATSAPEYAÑÄNIWA 0.0969
-2.8747 <s> WAWA -0.3310
-3.2727 <s> WAYK’A -0.1249
-2.6194 <s> WAYNA -0.2915
-3.0966 <s> WAYRUNQ’U -0.1761
-3.0966 <s> WAÑA 0.3010
-3.0966 <s> WIKUÑA -0.1761
-2.7955 <s> WILA 0.4523
-2.9716 <s> WILAMASIJAMPIWA 0.0969
-3.0966 <s> WILLJTA -0.1761
-2.5323 <s> WILLKA 0.2139
-3.2727 <s> WILLKÜRU 0.0000
-3.2727 <s> WINTU 0.0000
-2.9716 <s> WIPHALAXA 0.0969
-2.9716 <s> WISK’ACHA 0.2430
-3.0966 <s> YAKA -0.2139
-3.0966 <s> YANAPAÑA 0.2218
-2.9716 <s> YANAPIRI 0.1761
-3.0966 <s> YAPT’ITAYA 0.3010
-3.2727 <s> YAPUCHIRI -0.1249
-3.2727 <s> YATICHAÑA -0.0792
-2.9716 <s> YATICHIRI 0.3522
-2.7286 <s> YATICHIRIXA 0.1091
-3.2727 <s> YATIQAÑA -0.1761
-3.0966 <s> YATIQAÑAJAWA 0.4260
-2.8747 <s> YATIQIRI -0.0300
-3.2727 <s> YATIYAWINAKA -0.0792
-2.7955 <s> YATIÑA 0.1761
-3.2727 <s> YUQA 0.0000
-3.2727 <s> YURIÑA -0.0792
-2.7286 <s> YUSPAJARA 0.1963
-2.9716 <s> YUXCH’A 0.3010
-3.2727 <s> YÄNAKA -0.0792
-2.9716 <s> ÑIK’UTA 0.1761
-3.0966 <s> ÑIK’UTANAKAPAXA 0.2218
-3.2727 <s> ÑUSATA 0.3010
-3.2727 <s> ÑUXU 0.0000
-0.0969 ACHACHI </s> 2.8852
-0.3010 ACHACHILA </s> 3.0102
-0.4771 ACHACHILA AWICHA 0.0000
-0.1249 ACHACHILANITHWA </s> 3.0102
-0.3010 ACHAKU </s> 3.0102
-0.4771 ACHAKU ASIRU -0.1249
-0.6368 ACHUMANINA UTJAPKTHA 0.1249
-0.6368 ACHUMANINA UTJAPKTHTI 0.1249
-0.6368 ACHUMANINA UTJAPXTHTI 0.1249
-0.6368 ACHUMANINA UTJAPXTHWA 0.1249
-0.4771 ACHUQA </s> 3.1862
-0.3010 ACHUQA QASAWI 0.3010
-0.6532 AJANU </s> 3.1862
-0.4771 AJANU PARA 0.3010
-0.4771 AJANU UÑT’ATAWA 0.1249
-0.0512 AJLLIÑA </s> 2.5842
-0.6532 AKA </s> 3.1862
-0.4771 AKA PASTILLANAKA 0.1249
-0.4771 AKA UKA -0.1761
-0.4771 AKANA </s> 3.1862
-0.3010 AKANA KHAYANA 0.3680
-0.4771 AKANAKA </s> 3.1862
-0.3010 AKANAKA UKANAKA -0.1761
-0.5229 AKAXA </s> 3.0102
-0.5229 AKAXA MÄ -0.3869
-0.5229 AKAXA QILLQAÑAJAWA 0.1249
-0.4771 AKJA </s> 3.1862
-0.3010 AKJA UKJA 0.2218
-0.0969 ALALAWA </s> 2.8852
-0.2430 ALASITAYA </s> 2.8852
-0.5441 ALASITAYA YAPT’ITAYA 0.0000
-0.0512 ALAXA AYNACHA 0.0512
-0.6690 ALAYA </s> 3.0102
-0.8451 ALAYA AKANA 0.0000
-0.2430 ALAYA JALSU 0.0512
-0.8129 ALAÑA </s> 3.1862
-0.8129 ALAÑA ALJAÑA -0.0792
-0.2109 ALAÑA LLUNK’USIÑA 0.0512
-0.1761 ALAÑATAKI </s> 3.1862
-0.0792 ALAÑÄNITI </s> 2.7883
-0.5229 ALCALDIARU SARAPKTHA 0.1249
-0.5229 ALCALDIARU SARAPKTHTI 0.1249
-0.5229 ALCALDIARU SARAPXTHTI 0.1249
-0.1761 ALCALDIARUWA SARAPXTHA 0.3010
-0.4771 ALIQATA </s> 3.1862
-0.3010 ALIQATA JANK’AKI 0.6368
-0.4771 ALIRI </s> 3.1862
-0.3010 ALIRI ALJIRI -0.1761
-0.3979 ALJAÑA </s> 3.1862
-0.3979 ALJAÑA AMTAÑA -0.0792
-0.4771 ALJIRI </s> 3.1862
-0.3010 ALJIRI ANATIRI -0.3174
-0.4771 ALLCHHI </s> 3.1862
-0.3010 ALLCHHI WAWA -0.3724
-0.4771 ALLPACHU </s> 3.1862
-0.3010 ALLPACHU ALPAQA -0.1761
-0.4771 ALPAQA </s> 3.1862
-0.3010 ALPAQA ANU -0.3222
-0.0512 ALT’AÑA </s> 2.5842
-0.5119 ALWA </s> 2.8852
-0.5119 ALWA URASATI -0.2341
-0.5119 ALWA URASAWA -0.1249
-0.0969 ALWAXA PUSI -0.5351
-0.4771 AMARU </s> 3.1862
-0.3010 AMARU AÑATHUYA 0.2218
-0.0969 AMP SUMA -0.4694
-0.6990 AMPARA </s> 3.1862
-0.3979 AMPARA LUK’ANA -0.2041
-0.5229 AMPARA MUJLLI 0.2218
-0.1249 AMPARANAKANITAWA </s> 3.0102
-0.3979 AMTAÑA </s> 3.1862
-0.3979 AMTAÑA ANATAÑA -0.1919
-0.3979 AMUKT’AM </s> 3.1862
-0.3979 AMUKT’AM PARLAM 0.0000
-0.0969 AMUKT’APXAM </s> 2.8852
-0.1249 AMUKT’APXAMTI </s> 3.0102
-0.0969 AMUYKTHTI </s> 2.8852
-0.0969 AMUYUNAKA KATUQIRIXA 0.0969
-0.4771 ANATA </s> 3.1862
-0.3010 ANATA ACHUQA -0.1761
-0.1249 ANATAPKI </s> 3.0102
-0.1249 ANATAPKITI </s> 3.0102
-0.1249 ANATAPKTA </s> 3.0102
-0.1249 ANATAPKTAN </s> 3.0102
-0.1249 ANATAPKTANTI </s> 3.0102
-0.1249 ANATAPKTATI </s> 3.0102
-0.1249 ANATAPKTHA </s> 3.0102
-0.1249 ANATAPKTHTI </s> 3.0102
-0.1761 ANATAPXARAKIWA </s> 3.1862
-0.1249 ANATAPXITI </s> 3.0102
-0.1249 ANATAPXIWA </s> 3.0102
-0.1249 ANATAPXTANTI </s> 3.0102
-0.0792 ANATAPXTANWA </s> 2.7883
-0.1249 ANATAPXTATI </s> 3.0102
-0.0792 ANATAPXTAWA </s> 2.7883
-0.1249 ANATAPXTHTI </s> 3.0102
-0.0792 ANATAPXTHWA </s> 2.7883
-0.1249 ANATASKTHWA </s> 3.0102
-0.6532 ANATAÑA </s> 3.1862
-0.6532 ANATAÑA APARAÑA -0.0792
-0.3522 ANATAÑA MUNTHWA 0.7959
-0.5119 ANATIRI </s> 2.8852
-0.2109 ANATIRI WILA -0.5757
-0.1249 ANATITI </s> 3.0102
-0.0792 ANATIWA </s> 2.7883
-0.1249 ANATKI </s> 3.0102
-0.1249 ANATKITI </s> 3.0102
-0.1249 ANATKTA </s> 3.0102
-0.1249 ANATKTAN </s> 3.0102
-0.1249 ANATKTANTI </s> 3.0102
-0.1249 ANATKTATI </s> 3.0102
-0.1249 ANATKTHA </s> 3.0102
-0.1249 ANATKTHTI </s> 3.0102
-0.1249 ANATTANTI </s> 3.0102
-0.0792 ANATTANWA </s> 2.7883
-0.1249 ANATTATI </s> 3.0102
-0.0669 ANATTAWA </s> 2.7091
-0.1249 ANATTHA </s> 3.0102
-0.1249 ANATTHTI </s> 3.0102
-0.0792 ANATTHWA </s> 2.7883
-0.4771 ANCHA </s> 3.1862
-0.3010 ANCHA SINTI -0.1761
-0.0066 ANGELICA VARGAS 0.1739
-0.3979 ANQA </s> 3.1862
-0.3979 ANQA PIRQA 0.5441
-0.0969 ANQANA JAKASIRITHWA 0.0969
-0.0512 ANSATATAÑA </s> 2.5842
-0.3010 ANTI </s> 3.0102
-0.4771 ANTI KUNJAMA -0.1461
-0.0512 ANTUTAÑA </s> 2.5842
-0.5229 ANU </s> 3.0102
-0.5229 ANU CHHIWCHHI -0.1091
-0.5229 ANU PHISI -0.3010
-0.1249 ANUNITATI </s> 3.0102
-0.1249 ANUNITHWA </s> 3.0102
-0.3979 APARAÑA </s> 3.1862
-0.3979 APARAÑA ARKAÑA -0.0792
-0.3010 APILLA </s> 3.0102
-0.4771 APILLA KAYA 0.0000
-0.1249 APITU </s> 3.0102
-0.3680 APNAQIRI </s> 3.0102
-0.3680 APNAQIRI AWATIRI 0.3010
-0.1249 APNAQIRIWA </s> 3.0102
-0.1761 APNAQTHA </s> 3.1862
-0.0512 APTAÑA </s> 2.5842
-0.3979 ARKAÑA </s> 3.1862
-0.3979 ARKAÑA ARMAÑA -0.0792
-0.3979 ARMAÑA </s> 3.1862
-0.3979 ARMAÑA ARNAQAÑA -0.0792
-0.3979 ARNAQAÑA </s> 3.1862
-0.3979 ARNAQAÑA ARSUÑA -0.0792
-0.3010 ARSUM </s> 3.0102
-0.4771 ARSUM IST’AM -0.1249
-0.0969 ARSUPXAM </s> 2.8852
-0.0792 ARSUWIRUSA MANTIXA 0.1461
-0.3979 ARSUÑA </s> 3.1862
-0.3979 ARSUÑA ARUNTAÑA -0.2218
-0.0792 ARU PIRWA 0.0792
-0.6767 ARUMA </s> 2.8852
-0.9777 ARUMA INTI 0.3979
-0.6767 ARUMA URASATI -0.2341
-0.5006 ARUMA URASAWA -0.3010
-0.9777 ARUMA WILLJTA -0.1249
-0.1249 ARUMAKIPANA </s> 3.0102
-0.0792 ARUMANTHI </s> 2.7883
-0.1249 ARUMATI </s> 3.0102
-0.0969 ARUMAWA </s> 2.8852
-0.1249 ARUNTAÑA </s> 2.5330
-0.7782 ARUNTAÑA ATIPAÑA -0.0792
-0.4771 ARXATIRI </s> 3.1862
-0.3010 ARXATIRI ATAMIRI 0.3010
-0.0969 ARXATIRIWA </s> 2.8852
-0.0669 ARÜTWA MÄ -0.5283
-0.5229 ASILORU SARAPKI 0.1249
-0.5229 ASILORU SARAPKITI 0.1249
-0.5229 ASILORU SARAPXITI 0.1249
-0.1761 ASILORUWA SARAPXI 0.1761
-0.3010 ASIRU </s> 3.0102
-0.4771 ASIRU AMARU 0.0000
-0.3979 ASJARIRI </s> 3.1862
-0.3979 ASJARIRI Q’IWSA 0.0000
-0.6368 ASKI ARUMAKIPANA 0.1249
-0.6368 ASKI JAYP’UKIPANA 0.1249
-0.6368 ASKI URUKIPANA 0.1249
-0.6368 ASKI WARURT’IRIRAKIWA 0.1249
-0.0969 ASU WAWA -0.3590
-0.0792 ATAMIRI APNAQIRI 0.1461
-0.8016 ATI </s> 3.0102
-0.8016 ATI MALLQ’A 0.3010
-0.6767 ATI URU -0.3416
-0.6767 ATI URUTI -0.3716
-0.6767 ATI URUWA -0.3802
-0.3979 ATIPAÑA </s> 3.1862
-0.3979 ATIPAÑA AWTJAÑA -0.0792
-0.3010 ATÜRU </s> 3.0102
-0.4771 ATÜRU WARI -0.1984
-0.3010 AWATIRI </s> 3.0102
-0.4771 AWATIRI CH’UKURI -0.1249
-0.4771 AWICHA </s> 3.1862
-0.3010 AWICHA AWKI -0.1761
-0.1249 AWICHANITHWA </s> 3.0102
-0.4771 AWILA </s> 3.1862
-0.3010 AWILA JANQ’ULLA -0.1761
-0.5441 AWKCH’I </s> 3.1862
-0.2430 AWKCH’I TAYKCH’I 0.2430
-0.4771 AWKI </s> 3.1862
-0.3010 AWKI TATA 0.4260
-0.1249 AWKIPAXA ASKI -0.3632
-0.0512 AWQA CHACHA -0.3912
-0.0792 AWTI PACHA -0.2218
-0.3979 AWTJAÑA </s> 3.1862
-0.3979 AWTJAÑA CH’AKUÑA -0.2041
-0.1249 AWTJITU </s> 3.0102
-0.1249 AWTU APNAQIRIWA 0.1249
-0.3010 AXSARIRI </s> 3.0102
-0.4771 AXSARIRI Q’IWSA -0.1249
-0.3010 AYCHA </s> 3.0102
-0.4771 AYCHA LLAWCH’A 0.0000
-0.0512 AYNACHA CH’IQA 0.0512
-0.0969 AÑATHUYA </s> 2.8852
-0.1761 BENINKIRÏTHWA </s> 3.1862
-0.6368 CALACOTONA UTJKTA 0.1249
-0.6368 CALACOTONA UTJKTATI 0.1249
-0.6368 CALACOTONA UTJTATI 0.1249
-0.6368 CALACOTONA UTJTAWA 0.1249
-0.1249 CALIXTONA YATIQTHA 0.1249
-0.1249 CARLAKI </s> 3.0102
-0.1249 CARLAKITI </s> 3.0102
-0.1249 CARLAKTA </s> 3.0102
-0.1249 CARLAKTATI </s> 3.0102
-0.0969 CARLAKTHA </s> 2.8852
-0.1249 CARLAKTHTI </s> 3.0102
-0.1249 CARLATATI </s> 3.0102
-0.1249 CARLATAWA </s> 3.0102
-0.1249 CARLATHTI </s> 3.0102
-0.1249 CARLATHWA </s> 3.0102
-0.1249 CARLATI </s> 3.0102
-0.1249 CARLAWA </s> 3.0102
-0.1761 CENTERARUWA SARASKTHA 0.1761
-0.1597 CHACHA </s> 2.5330
-0.6368 CHACHA WARMI 0.6368
-0.3010 CHAKA </s> 3.0102
-0.4771 CHAKA MARKA -0.1249
-0.0969 CHALLWA </s> 2.8852
-0.3010 CHARA </s> 3.0102
-0.4771 CHARA QUNQURI 0.0000
-0.0792 CHATIYAÑA MUNTHWA 0.2218
-0.6021 CHAYRU </s> 3.1862
-0.6021 CHAYRU P’ISQI -0.2218
-0.4260 CHAYRU SAXTA 0.3680
-0.3979 CHHAQHAÑA </s> 3.1862
-0.3979 CHHAQHAÑA CHHIJCHHIÑA -0.0792
-0.3010 CHHICHHILLANKHA </s> 3.0102
-0.4771 CHHICHHILLANKHA CHHICHHIRANKHA -0.0792
-0.3979 CHHICHHIRANKHA </s> 3.1862
-0.3979 CHHICHHIRANKHA K’ISIMIRA 0.3979
-0.3680 CHHIJCHHI </s> 3.0102
-0.3680 CHHIJCHHI URPU 0.3010
-0.0969 CHHIJCHHISKITI </s> 2.8852
-0.3680 CHHIJCHHISKIWA </s> 3.0102
-0.3680 CHHIJCHHISKIWA URPUWA 0.3010
-0.3979 CHHIJCHHIÑA </s> 3.1862
-0.3979 CHHIJCHHIÑA CHHIJLLAÑA -0.2285
-0.8129 CHHIJLLAÑA </s> 3.1862
-0.2109 CHHIJLLAÑA AJLLIÑA 0.0512
-0.8129 CHHIJLLAÑA CHURAÑA -0.0792
-0.3010 CHHIPU </s> 2.8852
-0.4260 CHHIPU NAYRA -0.3869
-0.0969 CHHIPUNAKANIWA </s> 2.8852
-0.4771 CHHIQHANQARA </s> 3.1862
-0.3010 CHHIQHANQARA AMPARA -0.3222
-0.1249 CHHIRI </s> 3.0102
-0.2430 CHHIWCHHI </s> 2.8852
-0.5441 CHHIWCHHI IWISA 0.0000
-0.0969 CHHÜJTAYIRIWA KUNASA -0.5563
-0.7959 CHIKA ARUMA -0.4372
-0.7959 CHIKA ARUMATI 0.0000
-0.7959 CHIKA ARUMAWA 0.0969
-0.7959 CHIKA URU -0.3859
-0.7959 CHIKA URUTI -0.3716
-0.7959 CHIKA URUWA -0.3802
-0.3010 CHIKATA </s> 3.0102
-0.4771 CHIKATA AKJA 0.0000
-0.0969 CHIKAXA JACHT’APUNIWA 0.0969
-0.0969 CHIKÜRUXA PÄ -0.5786
-0.4771 CHINUQA </s> 3.1862
-0.3010 CHINUQA ANATA -0.1761
-0.1249 CHIQATI </s> 3.0102
-0.1249 CHIQAWA </s> 3.0102
-0.3522 CHUKI CHAKA 0.1761
-0.3522 CHUKI YAPU 0.1761
-0.0512 CHUPIKA CH’UXÑA -0.4559
-0.3979 CHURAÑA </s> 3.1862
-0.3979 CHURAÑA IKIÑA -0.0792
-0.3680 CHURI </s> 3.0102
-0.3680 CHURI NUWALA -0.2341
-0.4260 CHURITA </s> 3.0102
-0.3010 CHURITA AMP 0.0969
-0.2553 CHUYMA </s> 2.7883
-0.4771 CHUYMA LLAMP’U 0.2218
-0.1249 CHUYMANIWA KUNASA -0.4523
-0.0969 CH’AJA </s> 2.8852
-0.7782 CH’AKHA </s> 3.1862
-0.6021 CH’AKHA KUNKA -0.2341
-0.3010 CH’AKHA QULLIRI -0.1761
-0.6990 CH’AKUÑA </s> 3.0102
-0.6990 CH’AKUÑA CH’AMUÑA 0.3010
-0.2730 CH’AKUÑA ILLAPJAÑA 0.0512
-0.4771 CH’AMA </s> 3.1862
-0.3010 CH’AMA JAYRA 0.3680
-0.0512 CH’AMAMPI QUÑA 0.0512
-0.0792 CH’AMAWA </s> 2.7883
-0.3010 CH’AMUÑA </s> 3.0102
-0.4771 CH’AMUÑA CHHAQHAÑA -0.0792
-0.4771 CH’APAQA </s> 3.1862
-0.3010 CH’APAQA MUSQ’A -0.2341
-0.4771 CH’APHAQA </s> 3.1862
-0.3010 CH’APHAQA CH’APAQA -0.1761
-0.4771 CH’ARKHI </s> 3.1862
-0.3010 CH’ARKHI MISK’I 0.3010
-0.3979 CH’ASKA </s> 3.1862
-0.3979 CH’ASKA CHHIRI 0.3010
-0.3010 CH’AXWAKU </s> 3.0102
-0.4771 CH’AXWAKU UÑISKHUCHHI 0.0669
-0.3979 CH’IKHI </s> 2.8852
-0.6990 CH’IKHI IPI 0.0000
-0.5229 CH’IKHI JIWAKI -0.1091
-0.1761 CH’IKHIPXITI </s> 3.1862
-0.1249 CH’IKHIPXIWA </s> 3.0102
-0.1249 CH’IKHITHWA </s> 3.0102
-0.1249 CH’IKHITI </s> 3.0102
-0.0969 CH’IKHIWA </s> 2.8852
-0.0512 CH’IQA </s> 2.5842
-0.4771 CH’IWI </s> 3.1862
-0.3010 CH’IWI SUXA 0.3010
-0.0969 CH’IWITI </s> 2.8852
-0.4771 CH’IWIWA </s> 3.1862
-0.3010 CH’IWIWA SUXASKIWA 0.3010
-0.3010 CH’IXI </s> 3.0102
-0.4771 CH’IXI PANTI 0.0000
-0.6690 CH’IYARA </s> 3.0102
-0.2430 CH’IYARA JANQ’U -0.7417
-0.8451 CH’IYARA LARAMA 0.0000
-0.2553 CH’UKURI </s> 2.7883
-0.4771 CH’UKURI IRPIRI 0.0000
-0.6990 CH’UMPHI </s> 3.0102
-0.8751 CH’UMPHI MURTURIYA -0.1549
-0.6990 CH’UMPHI NAYRANAKANIWA 0.1249
-0.6990 CH’UMPHI ÑAK’UTA 0.2218
-0.6990 CH’UMPHI ÑIK’UTAWA 0.1249
-0.1761 CH’UMPHINAKAWA </s> 3.1862
-0.1761 CH’UMPHIWA </s> 3.1862
-0.4771 CH’UQI </s> 3.1862
-0.3010 CH’UQI AYCHA 0.3010
-0.2430 CH’USA </s> 2.8852
-0.5441 CH’USA MAYA -0.2527
-0.4771 CH’USPI </s> 3.1862
-0.3010 CH’USPI CHHICHHILLANKHA 0.3010
-0.5441 CH’UXÑA </s> 2.8852
-0.1919 CH’UXÑA Q’ILLU -0.3522
-0.0969 CH’UXÑAMPIWA </s> 2.8852
-0.4771 CH’UÑU </s> 3.1862
-0.3010 CH’UÑU TUNTA -0.1761
-0.1761 COCHABAMBATÄTHWA </s> 3.1862
-0.5229 CONSERVATORIORU SARKTAN 0.1249
-0.5229 CONSERVATORIORU SARKTANTI 0.1249
-0.5229 CONSERVATORIORU SARTANTI 0.1249
-0.1761 CONSERVATORIORUWA SARTAN 0.1761
-0.1761 COPACABANANA UTJTANWA 0.1761
-0.1249 COPACABANARUWA SARTHA -0.3010
-0.1761 COTA COTANA 0.1761
-0.1761 COTANA JAKASTHA 0.3979
-0.4260 CRUZ MARKARUWA 0.1249
-0.3010 CRUZ MARKATAWA 0.2430
-0.1761 CUADRATRACK APNAQTHA 0.1761
-0.1249 DANIEL RODRIGUEZ 0.1249
-0.1761 DEL SOLARUWA 0.1761
-0.0969 FABRICIOWA </s> 2.8852
-0.9294 FRICASE MUNAPKTAN 0.1761
-0.9294 FRICASE MUNAPKTANTI 0.1761
-0.9294 FRICASE MUNAPXTANTI 0.1761
-0.9294 FRICASE MUNAPXTANWA 0.1761
-0.9294 FRICASE MUNKTAN 0.1761
-0.9294 FRICASE MUNKTANTI 0.1761
-0.9294 FRICASE MUNTANTI 0.1761
-0.9294 FRICASE MUNTANWA 0.1761
-0.1249 FUTBOL ANATTHA 0.1249
-0.5229 GIMNASIORU SARKTA 0.1249
-0.5229 GIMNASIORU SARKTATI 0.1249
-0.5229 GIMNASIORU SARTATI 0.1249
-0.3010 GIMNASIORUWA SARI 0.2218
-0.4771 GIMNASIORUWA SARTHA 0.0969
-0.1249 GUITARRA JAT’IÑA 0.1249
-0.4771 ICHUMAMA </s> 3.1862
-0.3010 ICHUMAMA ICHUWAWA 0.3010
-0.4771 ICHUTATA </s> 3.1862
-0.3010 ICHUTATA ICHUMAMA -0.1761
-0.3010 ICHUWAWA </s> 3.0102
-0.4771 ICHUWAWA AWKCH’I 0.0669
-0.0969 IJMA </s> 2.8852
-0.0792 IKISAWA MASIJAMPI 0.0792
-0.0512 IKITATAÑA SINK’UÑA 0.0512
-0.1249 IKIWA PURITU 0.1249
-0.3979 IKIÑA </s> 3.1862
-0.3979 IKIÑA IMANTAÑA -0.0792
-0.0792 IKKITI </s> 2.7883
-0.0969 IKTHA SAYASAWA -0.4559
-0.0969 IKTHWA </s> 2.8852
-0.9777 ILLAPA </s> 3.1862
-0.8016 ILLAPA JALLU -0.3802
-0.5798 ILLAPA URU -0.4386
-0.6767 ILLAPA URUTI -0.3716
-0.6767 ILLAPA URUWA -0.3802
-0.0512 ILLAPAÑA </s> 2.5842
-0.0512 ILLAPJAÑA ILLAPAÑA 0.0512
-0.0969 ILLAPÜRU </s> 2.8852
-0.3979 IMANTAÑA </s> 3.1862
-0.3979 IMANTAÑA IMAÑA -0.0792
-0.3979 IMAÑA </s> 3.1862
-0.3979 IMAÑA IRNAQAÑA 0.3010
-0.0969 INA URASAMANA 0.0969
-0.3010 INAMAYA </s> 3.0102
-0.4771 INAMAYA NI 0.3979
-0.1249 INTERNETANIKTHTI </s> 3.0102
-0.0969 INTI JALANTA 0.5119
-0.4771 IPA </s> 3.1862
-0.3010 IPA LAQUSI -0.1761
-0.3680 IPAJAXA SUMA -0.3123
-0.3680 IPAJAXA YATICHIRIWA 0.1249
-0.3010 IPALA </s> 3.0102
-0.4771 IPALA TULLQA 0.0000
-0.3010 IPI </s> 3.0102
-0.4771 IPI Q’AYMA 0.0000
-0.4771 IRAQT’ITAYA </s> 3.1862
-0.3010 IRAQT’ITAYA KUNAMPISA 0.3010
-0.3979 IRNAQAWI </s> 3.1862
-0.3979 IRNAQAWI YATIÑA 0.0512
-0.1249 IRNAQAÑA </s> 3.0102
-0.3522 IRPIRI </s> 2.8852
-0.6532 IRPIRI ISI -0.0458
-0.6532 IRPIRI QILLQAÑA -0.2167
-0.3522 ISI CH’UKURI -0.2499
-0.3522 ISI T’AXSURI 0.1761
-0.1249 ISINI Q’ILLU -0.3869
-0.1761 ISLA DEL 0.1761
-0.3680 ISPILLU </s> 3.0102
-0.3680 ISPILLU LAXRA 0.5229
-0.1761 ISPILLUNAKAMAXA P’ASP’ATAWA 0.1761
-0.3010 IST’AM </s> 3.0102
-0.4771 IST’AM UÑCH’UKIM -0.0580
-0.4771 IST’AMTI </s> 3.1862
-0.3010 IST’AMTI JANI -0.4635
-0.3010 IST’APXAM </s> 3.0102
-0.4771 IST’APXAM UÑCH’UKIPXAM 0.3979
-0.3010 IST’APXAMTI </s> 3.0102
-0.4771 IST’APXAMTI JANI -0.2875
-0.3979 IST’AÑA </s> 3.1862
-0.3979 IST’AÑA JACHAÑA -0.0792
-0.3010 IWIJA </s> 3.0102
-0.4771 IWIJA KHUCHHI -0.1249
-0.4771 IWISA </s> 3.1862
-0.3010 IWISA IWIJA 0.3010
-0.3680 IXWIRI </s> 3.0102
-0.3680 IXWIRI JAMUQIRI 0.3010
-0.1249 IYAWA WAYNA -0.2293
-0.3979 JACHAÑA </s> 3.1862
-0.3979 JACHAÑA JAKAÑA -0.0792
-0.0969 JACHT’APUNIWA KHITÏTSA -0.3212
-0.6368 JACH’A </s> 3.0102
-0.4150 JACH’A JISK’A -0.2840
-0.5119 JACH’A TANSA 0.3522
-0.1761 JACH’ANAKAWA </s> 3.1862
-0.1761 JACH’APXTHTI </s> 3.1862
-0.1249 JACH’APXTHWA </s> 3.0102
-0.1249 JACH’ATHTI </s> 3.0102
-0.1249 JACH’ATHWA </s> 3.0102
-0.1249 JACH’ATI </s> 3.0102
-0.0669 JACH’AWA </s> 2.7091
-0.0969 JAKASIRITHWA SAYASAWA -0.4559
-0.0969 JAKASTHA </s> 2.8852
-0.3979 JAKAÑA </s> 3.1862
-0.3979 JAKAÑA JAKHUÑA -0.0792
-0.0969 JAKHU </s> 2.8852
-0.2041 JAKHURI </s> 2.7883
-0.6021 JAKHURI SAWURI -0.1249
-0.0969 JAKHUWIPAXA </s> 2.8852
-0.3979 JAKHUÑA </s> 3.1862
-0.3979 JAKHUÑA JALLUÑA -0.0792
-0.2430 JAK’A </s> 2.8852
-0.5441 JAK’A ACHACHILA 0.0000
-0.1761 JAK’ANA JAKASTHA 0.3979
-0.4771 JAK’U </s> 3.1862
-0.3010 JAK’U CH’UQI -0.1761
-0.1139 JALANTA </s> 2.4873
-0.8129 JALANTA WASÜRU -0.1249
-0.3010 JALJTATA </s> 3.0102
-0.4771 JALJTATA MUNATA -0.2285
-0.8751 JALLU </s> 3.1862
-0.6990 JALLU CHHIJCHHI -0.2341
-0.4771 JALLU PACHA -0.2218
-0.5740 JALLU QALLTA -0.2041
-0.4771 JALLUSKITI </s> 3.1862
-0.3010 JALLUSKITI CHHIJCHHISKITI 0.2218
-0.4771 JALLUSKIWA </s> 3.1862
-0.3010 JALLUSKIWA CHHIJCHHISKIWA -0.2341
-0.3979 JALLUÑA </s> 3.1862
-0.3979 JALLUÑA JAMP’ATIÑA -0.0792
-0.0512 JALSU JALANTA -0.2663
-0.3979 JAMP’ATIÑA </s> 3.1862
-0.3979 JAMP’ATIÑA JAWSAÑA -0.0792
-0.3010 JAMP’ATU </s> 3.0102
-0.4771 JAMP’ATU JARARANKHU -0.1249
-0.3010 JAMUQIRI </s> 3.0102
-0.4771 JAMUQIRI JAYLLIRI 0.0000
-1.6368 JANI AMUKT’APXAMTI 0.1249
-1.6368 JANI ASJARIRI 0.2218
-1.5119 JANI AXSARIRI 0.1761
-1.5119 JANI IST’AMTI 0.1761
-1.5119 JANI IST’APXAMTI 0.1761
-1.6368 JANI JAQI -0.3802
-1.5119 JANI JUTAMTI 0.1761
-1.5119 JANI JUTAPXAMTI 0.1761
-1.6368 JANI LLAKISIMTI 0.1249
-1.5119 JANI LURAMTI 0.1761
-1.4150 JANI LURAPXAMTI 0.1461
-1.5119 JANI MANQ’AMTI 0.1761
-1.4150 JANI MANQ’APXAMTI 0.0792
-1.5119 JANI MANTAMTI 0.1761
-1.4150 JANI MANTAPXAMTI 0.1461
-1.5119 JANI MISTUMTI 0.1761
-1.4150 JANI MISTUPXAMTI 0.1461
-1.6368 JANI PARLAMTI 0.2218
-1.5119 JANI PARLAPXAMTI 0.1761
-1.5119 JANI PARLISTATI 0.0969
-1.4150 JANI QILLQAMTI 0.1461
-1.4150 JANI QILLQAPXAMTI 0.1461
-1.5119 JANI QUNT’AMTI 0.1761
-1.5119 JANI QUNT’APXAMTI 0.1761
-1.6368 JANI SAMTI 0.1249
-1.5119 JANI SARAMTI 0.1761
-1.5119 JANI SARAPXAMTI 0.1761
-1.5119 JANI SAYT’AMTI 0.1761
-1.5119 JANI SAYT’APXAMTI 0.1761
-1.5119 JANI ULLAMTI 0.1761
-1.4150 JANI ULLAPXAMTI 0.1461
-1.5119 JANI WALIKI -0.4150
-2.0307 JANITI ACHUMANINA -0.3632
-2.0307 JANITI ALCALDIARU -0.3222
-2.0307 JANITI ANATAPKI 0.1249
-2.0307 JANITI ANATAPKTA 0.1249
-2.0307 JANITI ANATAPKTAN 0.1249
-2.0307 JANITI ANATAPKTHA 0.1249
-2.0307 JANITI ANATKI 0.1249
-2.0307 JANITI ANATKTA 0.1249
-2.0307 JANITI ANATKTAN 0.1249
-2.0307 JANITI ANATKTHA 0.1249
-1.2774 JANITI ANGELICA 0.5891
-2.0307 JANITI ASILORU -0.3222
-2.0307 JANITI CALACOTONA -0.3632
-2.0307 JANITI CARLAKI 0.1249
-2.0307 JANITI CARLAKTA 0.1249
-1.9058 JANITI CARLAKTHA 0.0969
-2.0307 JANITI CONSERVATORIORU -0.3222
-2.0307 JANITI FRICASE -0.3606
-2.0307 JANITI GIMNASIORU -0.3222
-1.2774 JANITI LA 0.6504
-2.0307 JANITI LARKI 0.1249
-2.0307 JANITI LARKTA 0.1249
-2.0307 JANITI LARKTAN 0.1249
-2.0307 JANITI LARKTHA 0.1249
-2.0307 JANITI LARUPKI 0.1249
-2.0307 JANITI LARUPKTA 0.1249
-2.0307 JANITI LARUPKTAN 0.1249
-2.0307 JANITI LARUPKTHA 0.1249
-2.0307 JANITI LLAYTHAKI 0.1249
-2.0307 JANITI LLAYTHAPKI 0.1249
-2.0307 JANITI LLUNK’UKTAN 0.1249
-2.0307 JANITI LLUNK’UPKTAN 0.1249
-2.0307 JANITI LUNQHUKTA 0.1249
-2.0307 JANITI LUNQHUPKTA 0.1249
-2.0307 JANITI MALLASARU -0.3222
-1.8089 JANITI MANQ’AÑA -0.5983
-2.0307 JANITI MASIPKI 0.1249
-2.0307 JANITI MASIPKTA 0.1249
-1.6628 JANITI MASIPKTAN 0.0580
-1.9058 JANITI MASIPKTHA 0.0969
-2.0307 JANITI MISTKANI 0.1249
-2.0307 JANITI MISTKAPXANI 0.1249
-2.0307 JANITI MISTKAPXAÑÄNI 0.1249
-2.0307 JANITI MISTKAPXÄ 0.1249
-2.0307 JANITI MISTKAPXÄTA 0.1249
-2.0307 JANITI MISTKAÑÄNI 0.1249
-2.0307 JANITI MISTKÄ 0.1249
-2.0307 JANITI MISTKÄTA 0.1249
-2.0307 JANITI MUNATANIKI 0.1249
-2.0307 JANITI MUNATANIKTA 0.1249
-2.0307 JANITI MUNATANIKTAN 0.1249
-1.9058 JANITI MUNATANIKTHA 0.0969
-2.0307 JANITI MUNATANIPKI 0.1249
-1.9058 JANITI MUNATANIPKTA 0.0969
-2.0307 JANITI MUNATANIPKTAN 0.1249
-2.0307 JANITI MUNATANIPKTHA 0.1249
-2.0307 JANITI MUNAYPATANA -0.3632
-2.0307 JANITI MUSEORU -0.3222
-2.0307 JANITI PARLAPKI 0.1249
-2.0307 JANITI PARLAPKTA 0.1249
-2.0307 JANITI PARLAPKTAN 0.1249
-2.0307 JANITI PARLAPKTHA 0.1249
-2.0307 JANITI PARLKI 0.1249
-2.0307 JANITI PARLKTA 0.1249
-2.0307 JANITI PARLKTAN 0.1249
-2.0307 JANITI PARLKTHA 0.1249
-2.0307 JANITI PISINARU -0.3222
-2.0307 JANITI Q’AYMAKTHA 0.1249
-2.0307 JANITI Q’AYMAPKTHA 0.1249
-2.0307 JANITI SARAPXAÑAJAKI 0.1249
-2.0307 JANITI SARAPXAÑAMAKI 0.1249
-2.0307 JANITI SARAPXAÑAPAKI 0.1249
-2.0307 JANITI SARAPXAÑASAKI 0.1249
-2.0307 JANITI SARAÑAJAKI 0.1249
-2.0307 JANITI SARAÑAMAKI 0.1249
-2.0307 JANITI SARAÑAPAKI 0.1249
-2.0307 JANITI SARAÑASAKI 0.1249
-2.0307 JANITI SOPOCACHINA -0.3802
-1.2526 JANITI TARIJA -1.1385
-2.0307 JANITI TARIJARU -0.3222
-1.2526 JANITI TUNKA -1.1247
-1.8089 JANITI T’ANT’A -0.6173
-1.8089 JANITI UMAÑA -0.5983
-2.1409 JANIWA </s> 3.0102
-2.1409 JANIWA ACHUMANINA -0.3632
-2.1409 JANIWA ALCALDIARU -0.3222
-2.0160 JANIWA AMUYKTHTI 0.0969
-2.1409 JANIWA ANATAPKITI 0.1249
-2.1409 JANIWA ANATAPKTANTI 0.1249
-2.1409 JANIWA ANATAPKTATI 0.1249
-2.1409 JANIWA ANATAPKTHTI 0.1249
-2.1409 JANIWA ANATKITI 0.1249
-2.1409 JANIWA ANATKTANTI 0.1249
-2.1409 JANIWA ANATKTATI 0.1249
-2.1409 JANIWA ANATKTHTI 0.1249
-1.3876 JANIWA ANGELICA 0.5891
-2.1409 JANIWA ASILORU -0.3222
-2.1409 JANIWA CALACOTONA -0.3632
-2.1409 JANIWA CARLAKITI 0.1249
-2.1409 JANIWA CARLAKTATI 0.1249
-2.1409 JANIWA CARLAKTHTI 0.1249
-2.1409 JANIWA CONSERVATORIORU -0.3222
-2.1409 JANIWA FRICASE -0.3606
-2.1409 JANIWA GIMNASIORU -0.3222
-2.1409 JANIWA GUITARRA 0.1249
-1.9191 JANIWA IKKITI 0.0792
-2.1409 JANIWA INTERNETANIKTHTI 0.1249
-2.1409 JANIWA JIWASANKKITI 0.1249
-2.1409 JANIWA JUMANKKITI 0.1249
-2.1409 JANIWA JUPANKKITI 0.1249
-1.3876 JANIWA LA 0.6504
-2.1409 JANIWA LARKITI 0.1249
-2.1409 JANIWA LARKTANTI 0.1249
-2.1409 JANIWA LARKTATI 0.1249
-2.1409 JANIWA LARKTHTI 0.1249
-2.1409 JANIWA LARUPKITI 0.1249
-2.1409 JANIWA LARUPKTANTI 0.1249
-2.1409 JANIWA LARUPKTATI 0.1249
-2.1409 JANIWA LARUPKTHTI 0.1249
-2.3170 JANIWA LLAYTHAKITI 0.1761
-2.3170 JANIWA LLAYTHAPKITI 0.1761
-2.3170 JANIWA LLUNK’UKTANTI 0.1761
-2.3170 JANIWA LLUNK’UPKTANTI 0.1761
-2.3170 JANIWA LUNQHUKTATI 0.1761
-2.3170 JANIWA LUNQHUPKTATI 0.1761
-2.1409 JANIWA LUP’KITI 0.1249
-1.8399 JANIWA LURAWINIKTHTI 0.0669
-2.1409 JANIWA MALLASARU -0.3222
-1.9191 JANIWA MANQ’AÑA -0.5983
-2.1409 JANIWA MASIPKITI 0.1249
-1.9191 JANIWA MASIPKTANTI 0.0792
-2.1409 JANIWA MASIPKTATI 0.1249
-2.1409 JANIWA MASIPKTHTI 0.1249
-2.1409 JANIWA MISTKANITI 0.1249
-2.1409 JANIWA MISTKAPXANITI 0.1249
-2.1409 JANIWA MISTKAPXAÑÄNITI 0.1249
-2.1409 JANIWA MISTKAPXÄTATI 0.1249
-2.1409 JANIWA MISTKAPXÄTI 0.1249
-2.1409 JANIWA MISTKAÑÄNITI 0.1249
-2.1409 JANIWA MISTKÄTATI 0.1249
-2.1409 JANIWA MISTKÄTI 0.1249
-2.0160 JANIWA MUNATANIKITI 0.0969
-2.1409 JANIWA MUNATANIKTANTI 0.1249
-2.1409 JANIWA MUNATANIKTATI 0.1249
-1.6638 JANIWA MUNATANIKTHTI 0.0458
-1.9191 JANIWA MUNATANIPKITI 0.0792
-2.0160 JANIWA MUNATANIPKTANTI 0.0969
-2.0160 JANIWA MUNATANIPKTATI 0.0969
-1.9191 JANIWA MUNATANIPKTHTI 0.0792
-2.1409 JANIWA MUNAYPATANA -0.3632
-2.1409 JANIWA MUSEORU -0.3222
-2.0160 JANIWA NAYAKTHTI 0.0969
-2.1409 JANIWA NAYANKKITI 0.1249
-2.1409 JANIWA PACHANIKTHTI 0.1249
-2.1409 JANIWA PARLAPKITI 0.1249
-2.1409 JANIWA PARLAPKTANTI 0.1249
-2.1409 JANIWA PARLAPKTATI 0.1249
-2.1409 JANIWA PARLAPKTHTI 0.1249
-2.1409 JANIWA PARLKITI 0.1249
-2.1409 JANIWA PARLKTANTI 0.1249
-2.1409 JANIWA PARLKTATI 0.1249
-2.1409 JANIWA PARLKTHTI 0.1249
-2.3170 JANIWA PELICULANAKA -0.0792
-2.1409 JANIWA PHISINIKTHTI 0.1249
-2.1409 JANIWA PISINARU -0.3222
-2.1409 JANIWA PURAKAJAWA -0.1091
-2.0160 JANIWA QULLQI -0.4058
-2.1409 JANIWA QULLQINIKTHTI 0.1249
-2.3170 JANIWA Q’AYMAKTHTI 0.1761
-2.3170 JANIWA Q’AYMAPKTHTI 0.1761
-2.1409 JANIWA SARAPXAÑAJAKITI 0.1249
-2.1409 JANIWA SARAPXAÑAMAKITI 0.1249
-2.1409 JANIWA SARAPXAÑAPAKITI 0.1249
-2.1409 JANIWA SARAPXAÑASAKITI 0.1249
-2.1409 JANIWA SARAÑA -0.3802
-2.1409 JANIWA SARAÑAJAKITI 0.1249
-2.1409 JANIWA SARAÑAMAKITI 0.1249
-2.1409 JANIWA SARAÑAPAKITI 0.1249
-2.1409 JANIWA SARAÑASAKITI 0.1249
-2.1409 JANIWA SOPOCACHINA -0.3802
-2.0160 JANIWA SUMA -0.4994
-2.3170 JANIWA SUTI 0.3010
-2.3170 JANIWA TAE 0.3010
-1.3876 JANIWA TARIJA -1.1190
-2.1409 JANIWA TARIJARU -0.3222
-1.3628 JANIWA TUNKA -1.1226
-1.9191 JANIWA T’ANT’A -0.6173
-1.9191 JANIWA UMAÑA -0.5983
-2.1409 JANIWA UTAMA 0.1249
-2.0160 JANIWA UTARU 0.0969
-2.1409 JANIWA WALIKITI 0.1249
-2.1409 JANIWA WALIKTHTI 0.1249
-2.0160 JANIWA YATIQAWINIKTHTI 0.0969
-2.3170 JANIWA YATIQKITI 0.1761
-2.0160 JANIWA YATKTHTI 0.3010
-0.0512 JANK’A K’ACHA 0.0512
-0.1139 JANK’AKI </s> 2.4873
-0.8129 JANK’AKI MÄKI -0.1549
-0.5082 JANQ’U </s> 2.5330
-0.9853 JANQ’U CH’IYARA -0.2852
-0.9853 JANQ’U ISINI 0.1249
-0.8603 JANQ’U LAPHINI 0.0969
-0.7634 JANQ’U PALLA -0.5663
-1.1614 JANQ’U ÑIK’UTANAKANIWA 0.1761
-1.1614 JANQ’U ÑIK’UTANIWA 0.1761
-0.4771 JANQ’ULLA </s> 3.1862
-0.3010 JANQ’ULLA JACH’A -0.3174
-0.6990 JAQI </s> 3.0102
-0.2730 JAQI ANATIRI -0.4881
-0.6990 JAQI JANQ’U -0.4297
-0.3010 JAQICHATA </s> 3.0102
-0.4771 JAQICHATA PANICHATA -0.1249
-0.0969 JAQINA MUNATAWA 0.0969
-0.0669 JAQIWA </s> 2.7091
-0.3010 JARARANKHU </s> 3.0102
-0.4771 JARARANKHU JUKUMARI -0.1249
-0.3010 JARU </s> 3.0102
-0.4771 JARU JAXU 0.3010
-0.4771 JASA </s> 3.1862
-0.3010 JASA CH’AMA -0.1761
-0.1249 JASAKI </s> 3.0102
-0.0969 JASAWA </s> 2.8852
-0.1249 JAT’IÑA YATKTHTI 0.4260
-0.1249 JAWIRARUWA SARTHA -0.0792
-0.0512 JAWQ’JAÑA </s> 2.5842
-0.3979 JAWSAÑA </s> 3.1862
-0.3979 JAWSAÑA JAYLLIÑA -0.0792
-0.1249 JAXU </s> 3.0102
-0.5441 JAYA </s> 3.1862
-0.2430 JAYA JAK’A 0.2430
-0.1249 JAYANA QAMTHA 0.5229
-0.1249 JAYATI </s> 3.0102
-0.1249 JAYAWA </s> 3.0102
-0.4771 JAYLLIRI </s> 3.1862
-0.3010 JAYLLIRI LAKA -0.1181
-0.3979 JAYLLIÑA </s> 3.1862
-0.3979 JAYLLIÑA JAYRASIÑA -0.0792
-0.8751 JAYP’U </s> 3.1862
-0.8751 JAYP’U ARUMA -0.2527
-0.5740 JAYP’U URASATI -0.1549
-0.3979 JAYP’U URASAWA -0.2218
-0.1249 JAYP’UKIPANA </s> 3.0102
-0.0969 JAYP’URUXA KIMSA -0.5816
-0.2430 JAYRA </s> 2.8852
-0.5441 JAYRA Q’APHA -0.0969
-0.1761 JAYRAPXTATI </s> 3.1862
-0.1249 JAYRAPXTAWA </s> 3.0102
-0.0969 JAYRASISKTAWA </s> 2.8852
-0.3979 JAYRASIÑA </s> 3.1862
-0.3979 JAYRASIÑA JILAÑA -0.0792
-0.1249 JAYRATATI </s> 3.0102
-0.0580 JAYRATAWA </s> 2.6422
-0.4771 JAYU </s> 3.1862
-0.3010 JAYU JUPHA -0.1761
-0.0969 JICHHÜRU </s> 2.8852
-0.3010 JIKHANI </s> 3.0102
-0.4771 JIKHANI CH’ASKA -0.0792
-0.5441 JIKISIPXTHA </s> 3.1862
-0.2430 JIKISIPXTHA KHITINAKAPXTHSA 0.1761
-0.1249 JIKISIÑAJAWA </s> 3.0102
-0.1249 JIKISIÑKAMA </s> 3.0102
-0.6990 JILA </s> 3.1862
-0.5229 JILA KULLAKA 0.3680
-0.3979 JILA SULLKÄPXTHWA 0.0969
-0.1249 JILANAKANITATI </s> 3.0102
-0.1249 JILANITHWA </s> 3.0102
-0.1249 JILATAJAMPIWA FUTBOL 0.1249
-0.0969 JILATAJAWA YATICHÄTAMA 0.0969
-0.3979 JILAÑA </s> 3.1862
-0.3979 JILAÑA JIST’ANTAÑA 0.7404
-0.0669 JILÏRI TAYKA -0.4771
-0.2430 JINCHU </s> 2.8852
-0.5441 JINCHU NASA -0.0580
-1.0212 JISA </s> 2.8852
-1.1461 JISA CHIQAWA 0.1249
-1.1461 JISA JAYAWA 0.1249
-1.0212 JISA MUNATANITHWA 0.4771
-1.1461 JISA NAYATHWA 0.1249
-0.9243 JISA NAYAWA 0.0792
-1.0212 JISA NAYAXA -0.5894
-1.1461 JISA SAPA -0.3010
-1.3222 JISA SAYA -0.0792
-0.9243 JISA UTJIWA 0.1461
-0.9243 JISA WALI -0.6252
-0.3979 JISKT’AÑA </s> 3.1862
-0.3979 JISKT’AÑA PHUQHAÑA 0.1761
-0.4150 JISK’A </s> 2.7883
-0.6368 JISK’A CH’IKHI -0.0792
-0.5119 JISK’A TANSA -0.2499
-0.1249 JISK’AWA </s> 3.0102
-0.0792 JIST’ANTATA UTANA -0.3468
-0.0414 JIST’ANTAÑA </s> 2.4873
-0.0512 JIST’ARAÑA JIST’ANTAÑA 0.1383
-0.9853 JIWA AMPARANAKANITAWA 0.1249
-0.8603 JIWA CHHIPUNAKANIWA 0.0969
-0.9853 JIWA SUTIKIWA 0.1249
-0.7634 JIWA TAWAQU -0.1761
-0.8603 JIWA TAWAQUNAKAXA 0.0969
-0.7634 JIWA WAYNA -0.4512
-0.8603 JIWA WAYNANAKAXA 0.0969
-0.3680 JIWAKI </s> 2.7091
-0.8451 JIWAKI Q’AÑU 0.0000
-0.8451 JIWAKI YUSPAJARA -0.0378
-0.6690 JIWAKI ÑUXU 0.3010
-0.1761 JIWAKIPXTANTI </s> 3.1862
-0.1249 JIWAKIPXTANWA </s> 3.0102
-0.1249 JIWAKITANTI </s> 3.0102
-0.1249 JIWAKITANWA </s> 3.0102
-0.0969 JIWAKITHWA </s> 2.8852
-0.0792 JIWAKIWA </s> 2.7883
-0.0969 JIWASA </s> 2.8852
-0.0969 JIWASANAKA </s> 2.8852
-1.6782 JIWASANAKAXA ANATAPXTANTI 0.1249
-1.4564 JIWASANAKAXA ANATAPXTANWA 0.0792
-1.4564 JIWASANAKAXA ANGELICA 1.1206
-1.6782 JIWASANAKAXA FRICASE -0.3606
-0.6929 JIWASANAKAXA JANITI -1.2930
-0.7082 JIWASANAKAXA JANIWA -1.3260
-1.8543 JIWASANAKAXA JIWAKIPXTANTI 0.1761
-1.6782 JIWASANAKAXA JIWAKIPXTANWA 0.1249
-1.3772 JIWASANAKAXA LA 1.1027
-1.6782 JIWASANAKAXA LARUPXTANTI 0.1249
-1.6782 JIWASANAKAXA LARUPXTANWA 0.1249
-1.6782 JIWASANAKAXA MASIPXTANTI 0.1249
-1.6782 JIWASANAKAXA MASIPXTANWA 0.1249
-1.6782 JIWASANAKAXA MISTUPXAÑÄNITI 0.1249
-1.6782 JIWASANAKAXA MISTUPXAÑÄNIWA 0.1249
-1.5533 JIWASANAKAXA MUNATANIPXTANTI 0.0969
-1.5533 JIWASANAKAXA MUNATANIPXTANWA 0.0969
-1.6782 JIWASANAKAXA PARLASKAPXATANWA 0.1249
-1.6782 JIWASANAKAXA PARLASKAPXTANTI 0.1249
-1.6782 JIWASANAKAXA PARLASKAPXTANWA 0.1249
-1.6782 JIWASANAKAXA SARAPXAÑASATI 0.1249
-1.6782 JIWASANAKAXA SARAPXAÑASAWA 0.1249
-1.4564 JIWASANAKAXA TARIJA -0.6737
-1.6782 JIWASANAKAXA TARIJARU -0.3222
-1.8543 JIWASANAKAXA TARIJARUWA 0.1761
-1.4564 JIWASANAKAXA TUNKA -0.6835
-1.8543 JIWASANAKAXA YATIQAPXAÑASAWA 0.1761
-0.1249 JIWASANKITI </s> 3.0102
-0.0792 JIWASANKIWA </s> 2.7883
-0.1249 JIWASANKKITI </s> 3.0102
-1.6842 JIWASAXA ANATTANTI 0.1249
-1.4624 JIWASAXA ANATTANWA 0.0792
-1.4624 JIWASAXA ANGELICA 1.1206
-1.6842 JIWASAXA CONSERVATORIORU -0.3222
-1.8603 JIWASAXA CONSERVATORIORUWA 0.1761
-1.6842 JIWASAXA FRICASE -0.3606
-0.6990 JIWASAXA JANITI -1.2930
-0.7464 JIWASAXA JANIWA -1.2952
-1.6842 JIWASAXA JIWAKITANTI 0.1249
-1.6842 JIWASAXA JIWAKITANWA 0.1249
-1.3832 JIWASAXA LA 1.1027
-1.6842 JIWASAXA LARTANTI 0.1249
-1.6842 JIWASAXA LARTANWA 0.1249
-1.6842 JIWASAXA MASITANTI 0.1249
-1.6842 JIWASAXA MASITANWA 0.1249
-1.6842 JIWASAXA MISTUÑÄNITI 0.1249
-1.6842 JIWASAXA MISTUÑÄNIWA 0.1249
-1.6842 JIWASAXA MUNATANITANTI 0.1249
-1.6842 JIWASAXA MUNATANITANWA 0.1249
-1.8603 JIWASAXA PARLASKTANTI 0.1761
-1.1200 JIWASAXA PARLASKTANWA 0.0378
-1.6842 JIWASAXA SARAÑASATI 0.1249
-1.6842 JIWASAXA SARAÑASAWA 0.1249
-1.3832 JIWASAXA TARIJA -0.7485
-1.4624 JIWASAXA TUNKA -0.6803
-1.8603 JIWASAXA VILLA 0.1761
-0.3979 JIWAÑA </s> 3.1862
-0.3979 JIWAÑA JUTAÑA -0.0792
-0.2041 JIWT’AYIRI </s> 2.7883
-0.6021 JIWT’AYIRI P’ITIRI 0.4771
-0.1249 JIWXÄ KHITÏTSA -0.2341
-0.3010 JUKU </s> 3.0102
-0.4771 JUKU K’ALLA -0.1249
-0.3010 JUKUMARI </s> 3.0102
-0.4771 JUKUMARI K’AYRA 0.3979
-0.3010 JUK’A </s> 3.0102
-0.4771 JUK’A ANCHA 0.0000
-0.0792 JUK’AMPI MUNTHWA 0.2218
-0.3010 JUMA </s> 3.0102
-0.4771 JUMA JUPA -0.1249
-0.4771 JUMANAKA </s> 3.0102
-0.4771 JUMANAKA ANATAPXTAWA 0.3010
-0.6532 JUMANAKA JUPANAKA -0.1249
-1.6961 JUMANAKAXA ANATAPXTATI 0.1249
-1.6961 JUMANAKAXA ANATAPXTAWA 0.3010
-1.4742 JUMANAKAXA ANGELICA 1.1206
-0.6680 JUMANAKAXA JANITI -1.3317
-0.6818 JUMANAKAXA JANIWA -1.3661
-1.8722 JUMANAKAXA JAYRAPXTATI 0.1761
-1.6961 JUMANAKAXA JAYRAPXTAWA 0.1249
-1.4742 JUMANAKAXA LA 1.1818
-1.6961 JUMANAKAXA LARUPXTATI 0.1249
-1.6961 JUMANAKAXA LARUPXTAWA 0.1249
-1.6961 JUMANAKAXA MALLASARU -0.3222
-1.8722 JUMANAKAXA MALLASARUWA 0.1761
-1.6961 JUMANAKAXA MASIPXTATI 0.1249
-1.6961 JUMANAKAXA MASIPXTAWA 0.1249
-1.6961 JUMANAKAXA MISTUPXÄTATI 0.1249
-1.6961 JUMANAKAXA MISTUPXÄTAWA 0.1249
-1.6961 JUMANAKAXA MUNATANIPXTATI 0.1249
-1.6961 JUMANAKAXA MUNATANIPXTAWA 0.1249
-1.4742 JUMANAKAXA MUNAYPATANA -0.4301
-1.6961 JUMANAKAXA PARLASKAPXTATI 0.1249
-1.4742 JUMANAKAXA PARLASKAPXTAWA 0.0792
-1.6961 JUMANAKAXA SARAPXAÑAMATI 0.1249
-1.6961 JUMANAKAXA SARAPXAÑAMAWA 0.1249
-1.4742 JUMANAKAXA TARIJA -0.6737
-1.5711 JUMANAKAXA TUNKA -0.5865
-1.4742 JUMANAKAXA UMAÑA -0.5983
-1.8722 JUMANAKAXA YATIQAPXAÑAMAWA 0.1761
-0.0969 JUMANKITI </s> 2.8852
-0.1249 JUMANKIWA </s> 3.0102
-0.1249 JUMANKKITI </s> 3.0102
-0.1249 JUMASA UKHAMARAKI 0.1249
-0.1065 JUMASTI </s> 2.2320
-0.7597 JUMASTI MUNATANITATI 0.5441
-1.7634 JUMAXA ANATTATI 0.1249
-1.4624 JUMAXA ANATTAWA 0.0669
-1.5416 JUMAXA ANGELICA 1.1206
-1.5416 JUMAXA CALACOTONA -0.4301
-1.7634 JUMAXA CARLATATI 0.1249
-1.7634 JUMAXA CARLATAWA 0.1249
-1.7634 JUMAXA GIMNASIORU -0.3222
-1.9395 JUMAXA GIMNASIORUWA -0.1249
-0.7492 JUMAXA JANITI -1.3200
-0.7634 JUMAXA JANIWA -1.3532
-1.7634 JUMAXA JAYRATATI 0.1249
-1.3955 JUMAXA JAYRATAWA 0.0580
-1.6385 JUMAXA KAWKINKIRÏTASA 0.0969
-1.5416 JUMAXA LA 1.1818
-1.7634 JUMAXA LARTATI 0.1249
-1.7634 JUMAXA LARTAWA 0.1249
-1.7634 JUMAXA MISTÜTATI 0.1249
-1.7634 JUMAXA MISTÜTAWA 0.1249
-1.3955 JUMAXA MUNATANITATI 0.3010
-1.6385 JUMAXA MUNATANITAWA 0.0969
-1.6385 JUMAXA PALASKTAWA 0.0969
-1.7634 JUMAXA PARLASKTATI 0.1249
-1.7634 JUMAXA PARLASKTAWA 0.1249
-1.4624 JUMAXA QAWQHA -0.6320
-1.7634 JUMAXA SARAÑAMATI 0.1249
-1.7634 JUMAXA SARAÑAMAWA 0.1249
-1.5416 JUMAXA TARIJA -0.6737
-1.4624 JUMAXA TUNKA -0.7626
-1.5416 JUMAXA UMAÑA -0.5983
-1.9395 JUMAXA YATIQAÑAMAWA 0.1761
-0.1249 JUMP’IWA APITU 0.1249
-0.6368 JUNT’U </s> 3.0102
-0.6368 JUNT’U K’ARA 0.3010
-0.6368 JUNT’U THAYA 0.3010
-0.6368 JUNT’U UMA -0.2341
-0.3010 JUNT’USKITI </s> 3.0102
-0.4771 JUNT’USKITI THAYASKITI 0.0000
-0.4771 JUNT’USKIWA </s> 3.1862
-0.3010 JUNT’USKIWA THAYAWA -0.1761
-0.4771 JUNT’UTI </s> 3.1862
-0.3010 JUNT’UTI JUNT’USKITI 0.3010
-0.3010 JUNT’UWA </s> 2.8852
-0.4260 JUNT’UWA JUNT’USKIWA -0.1761
-0.0969 JUNT’ÜMA </s> 2.8852
-0.3010 JUPA </s> 3.0102
-0.4771 JUPA JIWASA 0.3979
-0.3010 JUPANAKA </s> 3.0102
-0.4771 JUPANAKA JIWASANAKA 0.3979
-1.6842 JUPANAKAXA ANATAPXITI 0.1249
-1.6842 JUPANAKAXA ANATAPXIWA 0.1249
-1.4624 JUPANAKAXA ANGELICA 1.1206
-1.6842 JUPANAKAXA ASILORU -0.3222
-1.8603 JUPANAKAXA ASILORUWA 0.1761
-1.8603 JUPANAKAXA CH’IKHIPXITI 0.1761
-1.6842 JUPANAKAXA CH’IKHIPXIWA 0.1249
-0.6990 JUPANAKAXA JANITI -1.2970
-0.6842 JUPANAKAXA JANIWA -1.3546
-1.4624 JUPANAKAXA LA 1.1818
-1.6842 JUPANAKAXA LARUPXITI 0.1249
-1.6842 JUPANAKAXA LARUPXIWA 0.1249
-1.6842 JUPANAKAXA MASIPXITI 0.1249
-1.6842 JUPANAKAXA MASIPXIWA 0.1249
-1.6842 JUPANAKAXA MISTUPXANITI 0.1249
-1.6842 JUPANAKAXA MISTUPXANIWA 0.1249
-1.6842 JUPANAKAXA MUNATANIPXITI 0.1249
-1.6842 JUPANAKAXA MUNATANIPXIWA 0.1249
-1.6842 JUPANAKAXA PARLASKAPXITI 0.1249
-1.4624 JUPANAKAXA PARLASKAPXIWA 0.0792
-1.8603 JUPANAKAXA PLAY 0.5441
-1.6842 JUPANAKAXA SARAPXAÑAPATI 0.1249
-1.6842 JUPANAKAXA SARAPXAÑAPAWA 0.1249
-1.3163 JUPANAKAXA TARIJA -0.8110
-1.4624 JUPANAKAXA TUNKA -0.6835
-1.4624 JUPANAKAXA T’ANT’A -0.6173
-1.8603 JUPANAKAXA YATIQAPXAÑAPAWA 0.1761
-0.1249 JUPANKITI </s> 3.0102
-0.1249 JUPANKIWA </s> 3.0102
-0.1249 JUPANKKITI </s> 3.0102
-1.8472 JUPAXA </s> 3.0102
-1.8472 JUPAXA ANATITI 0.1249
-1.6253 JUPAXA ANATIWA 0.0792
-1.6253 JUPAXA ANGELICA 1.1206
-1.8472 JUPAXA CARLATI 0.1249
-1.8472 JUPAXA CARLAWA 0.1249
-1.8472 JUPAXA CH’IKHITI 0.1249
-1.8472 JUPAXA CH’IKHIWA 0.2218
-1.8472 JUPAXA DANIEL 0.1249
-1.8472 JUPAXA GIMNASIORUWA -0.1761
-0.8472 JUPAXA JANITI -1.3117
-0.7222 JUPAXA JANIWA -1.4611
-1.8472 JUPAXA JANQ’U -0.4127
-1.7222 JUPAXA KAWKI -0.5263
-1.7222 JUPAXA KAWKINKIRÏSA 0.0969
-1.7222 JUPAXA KULIRASKIWA 0.0969
-1.6253 JUPAXA LA 1.1818
-1.8472 JUPAXA LARUTI 0.1249
-1.8472 JUPAXA LARUWA 0.1249
-1.8472 JUPAXA MISTUNITI 0.1249
-1.8472 JUPAXA MISTUNIWA 0.1249
-1.8472 JUPAXA MUNATANITI 0.1249
-1.7222 JUPAXA MUNATANIWA 0.0969
-1.8472 JUPAXA MUSEORU -0.3222
-2.0233 JUPAXA MUSEORUWA 0.1761
-1.8472 JUPAXA PARLASKITI 0.1249
-1.6253 JUPAXA PARLASKIWA 0.0792
-1.8472 JUPAXA QULLAÑA -0.2730
-1.5461 JUPAXA SANTA 0.2218
-1.6253 JUPAXA SAPAKISKIWA 0.0792
-1.8472 JUPAXA SARAÑAPATI 0.1249
-1.8472 JUPAXA SARAÑAPAWA 0.1249
-2.0233 JUPAXA TAE 0.3010
-1.3700 JUPAXA TARIJA -0.9067
-1.3243 JUPAXA TUNKA -0.9551
-1.6253 JUPAXA T’ANT’A -0.6173
-1.8472 JUPAXA VINO 0.1249
-1.8472 JUPAXA YATIQASKIWA 0.1249
-2.0233 JUPAXA YATIQAÑAPAWA 0.1761
-0.4771 JUPHA </s> 3.1862
-0.3010 JUPHA WAYK’A -0.1761
-0.3010 JUQ’ARA </s> 3.0102
-0.4771 JUQ’ARA JUYKHU -0.1249
-0.3010 JURPÜRU </s> 3.0102
-0.4771 JURPÜRU ARUMANTHI 0.4771
-0.3010 JUTAM </s> 3.0102
-0.4771 JUTAM MISTUM 0.3979
-0.4771 JUTAMTI </s> 3.1862
-0.3010 JUTAMTI JANI -0.4635
-0.0969 JUTAPXAM </s> 2.8852
-0.3010 JUTAPXAMTI </s> 3.0102
-0.4771 JUTAPXAMTI JANI -0.2840
-0.3979 JUTAÑA </s> 3.1862
-0.3979 JUTAÑA K’ARISIÑA -0.0792
-0.0512 JUTIRI NAYRIRI 0.0512
-0.3010 JUYKHU </s> 3.0102
-0.4771 JUYKHU KHAKHA -0.1249
-0.3424 JUYPHI PACHA -0.2218
-0.3424 JUYPHI PACHANKTANWA 0.0792
-0.0792 KALLACHI </s> 2.7883
-0.0969 KAMISAKI </s> 2.8852
-0.3010 KATARI </s> 3.0102
-0.4771 KATARI LARI -0.1047
-0.0969 KATUQIRIXA NAYRARUPUNIWA 0.0969
-0.4437 KAWKI </s> 2.5330
-0.7959 KAWKI KHITI -0.3716
-0.7959 KAWKI MARKATASA 0.0969
-0.7959 KAWKI MARKATÄTASA 0.0969
-0.9208 KAWKI WAYNA -0.1568
-0.0969 KAWKINKIRÏSA </s> 2.8852
-0.0969 KAWKINKIRÏTASA </s> 2.8852
-0.4260 KAWKINSA QAMTHA 0.5229
-0.3010 KAWKINSA YATIQTA 0.0969
-0.3010 KAWKIRI </s> 3.0102
-0.4771 KAWKIRI KUNAWSA -0.1249
-0.0969 KAWKIRUSA SARASKTA 0.0969
-0.3010 KAYA </s> 3.0102
-0.4771 KAYA TUNQU 0.0000
-0.4771 KAYU </s> 3.1862
-0.3010 KAYU T’USU -0.1761
-0.1249 KAYUJAXA JACH’AWA 0.3680
-0.3522 KAYUNI JAYP’URUXA 0.0969
-0.3522 KAYUNI SARNAQTHA -0.3468
-0.0969 KAYUNIWA SARNAQTHA -0.3468
-0.3010 KHAKHA </s> 3.0102
-0.4771 KHAKHA CH’AJA 0.3979
-0.4771 KHAYA </s> 3.1862
-0.3010 KHAYA KHURI 0.3010
-0.2430 KHAYANA </s> 2.8852
-0.5441 KHAYANA MASI -0.2632
-0.3010 KHAYANAKA </s> 3.0102
-0.4771 KHAYANAKA NAYRA -0.1383
-0.1249 KHAYASTI </s> 3.0102
-0.1249 KHAYAXA NAYANKIWA 0.3010
-0.3010 KHITHÏPXTSA </s> 3.0102
-0.4771 KHITHÏPXTSA AMPARA -0.0792
-0.4523 KHITI </s> 2.7091
-0.7533 KHITI KUNA -0.4465
-0.6284 KHITI QAWQHA -0.3590
-0.7533 KHITI SIKU 0.2218
-0.1761 KHITIMPISA JAKASTHA 0.3979
-0.3010 KHITINAKAPXTHSA </s> 3.0102
-0.4771 KHITINAKAPXTHSA NAYRA -0.0512
-0.1249 KHITINKISA </s> 3.0102
-0.1249 KHITISA JUPAXA -0.4709
-0.4771 KHITÏTSA </s> 2.6422
-1.0212 KHITÏTSA JAQI -0.2041
-0.8451 KHITÏTSA LAXRA 0.0458
-0.8451 KHITÏTSA PANKA 0.0458
-1.0212 KHITÏTSA QUQA 0.3010
-0.8451 KHITÏTSA SIWULLA 0.2218
-0.3010 KHUCHHI </s> 3.0102
-0.4771 KHUCHHI PHISI 0.0512
-0.3010 KHULLU </s> 3.0102
-0.4771 KHULLU LIQI -0.0458
-0.4771 KHUNU </s> 3.1862
-0.3010 KHUNU CH’IWI -0.1761
-0.4771 KHUNUSKITI </s> 3.1862
-0.3010 KHUNUSKITI CH’IWITI 0.2218
-0.4771 KHUNUSKIWA </s> 3.1862
-0.3010 KHUNUSKIWA CH’IWIWA -0.1761
-0.3979 KHUNUÑA </s> 3.1862
-0.3979 KHUNUÑA KHUYUÑA -0.0792
-0.3010 KHURI </s> 3.0102
-0.4771 KHURI AKANAKA 0.0000
-0.3979 KHUYUÑA </s> 3.1862
-0.3979 KHUYUÑA KUSISIÑA -0.0792
-0.0512 KILLIÑA </s> 2.5842
-0.0512 KILLT’AÑA KILLIÑA 0.0512
-1.3375 KIMSA </s> 2.8852
-1.4624 KIMSA ANUNITHWA 0.1249
-0.9853 KIMSA JAYP’U -0.4771
-1.3375 KIMSA KAYUNI -0.3468
-1.4624 KIMSA MARANIKTAN 0.1249
-1.4624 KIMSA MARANIKTANTI 0.1249
-1.4624 KIMSA MARANITANTI 0.1249
-1.4624 KIMSA MARANITANWA 0.1249
-1.4624 KIMSA PATAKA -0.2272
-0.2319 KIMSA TUNKA -1.2780
-0.4260 KIMSANI </s> 2.5330
-0.9031 KIMSANI KIMSA -0.0939
-0.6021 KIMSANI MARANIWA 0.1761
-0.9031 KIMSANI PÄ 0.0058
-1.0792 KIMSANI TUNKA -0.2743
-0.4771 KIMSAQALLQU </s> 3.0102
-0.6532 KIMSAQALLQU LLÄTUNKA 0.0000
-0.4771 KIMSAQALLQU TUNKA -0.4455
-0.2553 KIMSAQALLQUNI </s> 2.4873
-0.9542 KIMSAQALLQUNI KIMSA 0.0822
-0.7782 KIMSAQALLQUNI PÄ 0.0058
-0.9542 KIMSAQALLQUNI TUNKA -0.2759
-0.5441 KIMSAQALLQÜRI </s> 3.1862
-0.2430 KIMSAQALLQÜRI LLÄTUNKÏRI -0.2341
-0.3680 KIMSÏRI </s> 3.0102
-0.3680 KIMSÏRI PUSÏRI -0.1761
-0.1761 KUKA MATI 0.1761
-0.0969 KULIRASKIWA </s> 2.8852
-0.0969 KULIRASKTHWA </s> 2.8852
-0.2430 KULLAKA </s> 2.8852
-0.5441 KULLAKA ALLCHHI 0.0000
-0.0969 KULLAKAJAMPI IKTHWA 0.0969
-0.4771 KULLI </s> 3.1862
-0.3010 KULLI UQI -0.1091
-0.7984 KUNA </s> 2.6422
-1.3424 KUNA KAWKI -0.2253
-1.1663 KUNA KHITI -0.3928
-1.0414 KUNA LURIRISA 0.0969
-1.0414 KUNA MAKHATAWINKTASA 0.0969
-1.1663 KUNA MARA -0.4065
-1.0414 KUNA PACHAXISA 0.1761
-1.1663 KUNA URASA 0.1249
-0.7984 KUNA URUSA 0.0580
-1.1663 KUNA UTA -0.1963
-1.1663 KUNA YATIQAWISA 0.1249
-0.0792 KUNAMPISA </s> 2.7883
-0.0792 KUNAPACHA </s> 2.7883
-0.0126 KUNAS KUNASA -1.2493
-1.2553 KUNASA </s> 2.7883
-1.4771 KUNASA AKAXA -0.3222
-1.3522 KUNASA ALWAXA 0.0969
-1.2553 KUNASA IKISAWA 0.0792
-1.3522 KUNASA JANQ’U -0.5376
-1.6532 KUNASA KUNAS 1.2430
-1.6532 KUNASA LURAPXTA 0.3979
-1.3522 KUNASA MANQHATA 0.0969
-1.4771 KUNASA MAQ’AÑATAKI 0.1249
-1.3522 KUNASA NAYARU 0.0969
-1.1761 KUNASA NAYAXA -0.7673
-1.3522 KUNASA PHISQHA -0.5051
-1.2553 KUNASA QILLQATARUSA 0.0792
-1.4771 KUNASA SAMARAWIMANA 0.1249
-1.3522 KUNASA SILULARAMANA 0.0969
-1.4771 KUNASA SUTI 0.1249
-1.4771 KUNASA SUTIMAXA 0.1249
-1.4771 KUNASA SUTIPAXA -0.2730
-1.3522 KUNASA TAQI -0.3010
-1.4771 KUNASA TAYKAPAXA 0.1249
-1.4771 KUNASA TUKUYA 0.1249
-1.6532 KUNASA UMA -0.1549
-1.4771 KUNASA UMAÑATAKI 0.1249
-1.3522 KUNASA USTAMA 0.0969
-1.4771 KUNASA YATIQAÑA -0.2730
-0.0792 KUNATA </s> 2.7883
-0.3010 KUNAWSA </s> 3.0102
-0.4771 KUNAWSA KUNAPACHA 0.4771
-0.3979 KUNJAMA </s> 2.8852
-0.6990 KUNJAMA KAWKIRI -0.1249
-0.5229 KUNJAMA MUNATA -0.0621
-0.1249 KUNJAMASA MUNATAMAXA 0.1249
-0.3680 KUNKA </s> 3.0102
-0.3680 KUNKA ATI -0.4025
-0.1249 KUNKAPAXA THURUWA 0.1249
-0.8653 KUNSA LURAPXAÑÄNI 0.3010
-0.8653 KUNSA LURAPXTA 0.2218
-0.7404 KUNSA LURASKAPXTA 0.0969
-0.8653 KUNSA LURASKTHA 0.1249
-0.7404 KUNSA LURAÑA -0.3468
-0.7404 KUNSA LURTHA -0.3010
-0.0512 KUPI NAYRAQATA 0.0512
-1.0212 KURMI </s> 3.1862
-0.8451 KURMI KHUNU -0.1761
-0.5441 KURMI URU -0.5177
-0.7202 KURMI URUTI -0.3928
-0.6232 KURMI URUWA -0.4771
-0.4771 KURMIWA </s> 3.1862
-0.3010 KURMIWA KHUNUSKIWA -0.1761
-0.0969 KURMÜRU </s> 2.8852
-0.4771 KURURU </s> 3.1862
-0.3010 KURURU KALLACHI 0.3010
-0.1249 KUSA UKATA 0.2218
-0.5229 KUSI </s> 3.0102
-0.3979 KUSI KUSI -0.3010
-0.6990 KUSI LAP’A -0.1249
-0.3979 KUSISIÑA </s> 3.1862
-0.3979 KUSISIÑA KUTIYAÑA -0.0792
-0.3680 KUTI </s> 3.0102
-0.3680 KUTI LLUMPAQA 0.3010
-0.3979 KUTIYAÑA </s> 3.1862
-0.3979 KUTIYAÑA LLAKISIÑA -0.0792
